司法制度 -0.046762303 -0.030624775 0.24328384 0.049643036 -0.18213683 0.15725671 0.0529918 0.07134138 -0.2639345 0.107082725 -0.15050504 -0.14546207 -0.070311695 0.08392495 0.07710029 -0.036637012 0.038179144 0.019213308 -0.18728901 -0.08461827 -0.09493568 0.012190646 -0.28388563 0.053424347 -0.34703133 0.2560102 -0.21542981 0.12061489 -0.07676777 -0.094146885 0.1735087 0.045716453 -0.16577908 0.08389176 0.14093035 0.22117673 -0.20777124 0.14211993 -0.02167515 0.0782379 -0.12222715 -0.101291224 -0.05603824 0.06355713 -0.20869836 -0.020865206 -0.14496431 -0.047909312 -0.09801564 0.11005136
哀鸿遍野 0.19260725 -0.019220073 -0.063512444 0.07250692 -0.031248022 0.1462169 -0.089990236 -0.24709873 0.0039943755 0.07892434 0.090683915 0.028096147 -0.08616582 -0.16259545 0.079523034 0.27672994 0.010289868 -0.18341938 -0.042709865 -0.40964448 0.11726577 -3.8649066E-4 -0.060378347 0.006167148 0.13411556 0.19188505 -0.050244004 -0.11499397 0.13751487 -0.119639225 -0.012771771 0.005360514 0.013588991 -0.13225898 0.22720003 0.097094886 -0.26346967 0.07506122 -0.032482304 0.1025073 0.14516896 -0.059105825 -0.10679006 0.056659214 -0.09397489 0.034184173 0.19726504 -0.23555152 -0.08026963 0.29926464
魏骏杰 -0.006711669 0.20726192 -0.19909526 0.06126562 -0.14361171 -0.15703717 -0.034690525 -0.021239227 -0.06506847 0.06388541 -0.06198475 -0.003334995 -0.24254422 -0.08898296 0.12195059 0.09260122 0.043201346 0.081365965 0.18352512 -0.19848119 -0.021745497 -0.091296256 0.17991737 -0.084020674 -0.054596722 0.28516856 0.020664867 0.064786926 -0.15862402 0.019530835 -0.0012928407 -0.321965 0.024901973 -0.09512226 -0.045563433 0.17830572 -0.31436348 -0.16966997 0.3230683 0.008356215 -0.121019036 0.0057228752 0.0041773147 -0.11275382 -0.1002533 0.12362098 -0.2902036 0.05782771 0.006205893 -0.020880576
石首 -0.0061254264 0.22008514 -0.18488578 -0.016933791 0.08526256 0.05213296 -0.10190946 -0.107198246 -0.14712574 0.077846475 0.015902482 -0.061607044 0.10423815 0.010264201 0.058442675 0.07715018 0.09802308 0.21313615 0.18488753 0.019101558 -0.13797927 0.055421755 0.0025550623 0.11533241 0.07494649 -0.031540606 0.0011389112 0.046070978 0.45324668 -0.4888948 0.12301553 0.08943826 0.065559134 -0.028284108 -0.018835107 -0.078591056 -0.029392948 0.08052302 -0.05521153 0.17057934 0.1648522 0.0037152285 -0.16569822 -0.07147565 0.033806685 0.18376017 0.15618965 0.04453453 -0.08931602 0.2272306
天后 -0.045546543 0.16354 -0.031305976 -0.0058792117 0.14430828 0.054708052 0.14663193 0.08610352 0.17796196 -0.12055821 0.18108396 -0.06217713 -0.27634832 -0.042101737 -0.06366548 0.027748741 -0.023161948 0.07292653 -0.023609953 -0.19600525 -0.026290586 -0.09905435 0.4783869 -0.055241678 -0.06726033 0.2842492 0.10238466 0.017278329 -0.0898374 -0.011099222 -0.13938439 -0.15117966 0.10360368 -0.005679224 0.09305183 -0.15207173 0.06087802 -0.14970738 0.1422413 0.07144264 -0.08503392 0.126304 -0.111674085 -0.076850966 -0.15862511 0.27547178 -0.13336277 0.036628902 0.025602847 0.24777442
蒙古国 0.06963968 0.13997257 -0.14389966 0.16142873 -0.05136327 0.10725777 -0.017850732 0.080497764 -0.14130174 -0.008353509 0.012519275 0.13434872 0.034838196 0.23268518 0.13429667 -0.23047312 -0.04402535 0.048663266 -0.25484046 0.107186586 0.037670672 -0.02788928 -0.032377858 -0.0013144515 -0.13421315 0.25764954 -0.19761005 -0.09436405 -0.12993556 -0.123689346 -0.1499353 0.23062205 -0.110477194 0.112461984 0.016674751 -0.13494188 -0.11479089 -0.0867631 0.18923858 0.10168984 -0.27512223 0.21689735 -0.18436447 -0.009215467 -0.010711727 0.16345567 0.029982937 0.009927535 -0.2536826 0.24437456
性学 0.13129367 0.06775283 0.2463535 -0.017241098 -0.04281018 0.14570293 0.09945534 0.02984264 -0.3893762 0.013485893 -0.06838054 -0.17364526 -0.11495432 -0.0047277617 -0.021343425 -0.047605995 0.03619068 -0.054373693 -0.06506159 -0.110851556 0.11225121 0.028693063 0.08222865 0.08456836 -0.14430739 0.12643246 -0.08191839 0.15918122 -0.12844801 -0.06699743 -0.069443256 0.015393804 -0.025689395 0.10599499 0.03171221 0.23657286 0.26525134 0.02282683 0.069303975 0.1394251 -0.3538329 0.04974304 -0.20641299 0.0734859 -0.14617251 0.25575408 -0.1677136 -0.097854376 0.19462927 -0.18894157
瑶族 -0.0054096635 0.17926782 -0.049918797 -0.15402181 -0.060416695 0.21118891 -0.04575511 0.1102975 -0.1100551 0.19615018 0.15267801 -0.18481725 -0.087093554 -0.03206655 0.09776306 -0.15043113 -0.011035026 -0.035921514 0.015321056 -0.2450571 0.30308095 0.06937276 0.12620108 0.18177074 -0.14614172 0.026875228 -0.08710656 -0.034075245 0.18678159 -0.14786057 0.07352005 0.24846114 0.1312879 -0.18801066 -0.07346145 -0.09686082 -0.20954654 -0.13003913 -0.042299762 0.21345001 0.044660516 0.24205075 0.050648697 0.004815237 0.024973113 -0.04530749 0.15165892 0.150196 -0.17635024 0.22396237
钢琴家 -0.06571973 0.07242736 0.011525455 0.20483877 0.06294033 0.23972055 -0.07582171 0.030348783 -0.15602678 0.17726369 -0.16949567 -0.005180935 -0.17109919 0.04625701 0.080153495 0.13818875 0.13882807 -0.025275424 -0.18205652 -0.044242796 0.05916279 0.018705893 0.20900257 0.05047263 -0.03201844 0.15190284 0.020910606 0.013002171 -0.07308968 0.2842143 -0.32974365 -0.09211081 0.14578174 -0.15889552 0.121401526 1.3918216E-4 0.24962126 -0.0983864 0.103865035 -0.028628366 -0.04536623 0.0250445 0.020310406 -0.31823668 -0.10803184 0.37362626 0.016955594 0.063636675 0.013678804 -0.02554669
加纳 -0.06850951 0.12526177 0.028639972 0.2601993 0.007750475 0.018503955 -0.09230507 0.08398777 -0.20005773 0.13885744 -0.028547384 0.093177125 0.073924415 -0.03382569 0.044552967 0.0147226835 -0.110928886 -0.03353608 -0.24220072 0.019748595 0.019865124 0.100475185 0.023491733 -0.030015027 -0.26923445 0.062935725 -0.106953435 -0.04591827 -0.08846476 0.02034978 -0.25575575 0.07794239 -0.21482521 0.020982722 0.1765489 0.021335067 0.008970265 -0.12985016 0.13546443 -0.1170646 -0.308351 0.068984844 -0.026325854 -0.35216314 0.19153248 0.20174438 0.11950764 0.23999321 -0.24961603 -0.004795202
粟裕 0.104511656 0.06390833 -0.07065298 -0.16950855 -0.005591339 0.056955982 -0.29863727 -0.107259676 -0.16649923 0.09768297 0.07702418 0.28091776 -0.04644727 0.1020089 -0.15705226 0.14100765 -0.120168984 0.21194896 0.08007666 -0.018758075 0.031860672 0.24731597 -0.020206964 -0.041323133 0.20167938 0.18448374 0.014974356 -0.002442223 0.2934256 0.09920611 0.24120872 -0.061874554 -0.030688858 -0.15227242 0.10395134 0.27166447 0.06520001 0.08398887 -0.16098191 0.026401933 0.046766263 0.063672535 -0.032186422 0.0357234 0.064226404 0.1328813 -0.088727064 0.09580895 -0.2732093 0.18995595
陈赓 0.071644396 0.022441613 -0.07841089 -0.07952397 0.005448397 0.021330466 -0.32075566 -0.10197496 -0.2597398 0.05489219 -0.04916187 0.26640463 -0.09673544 0.117929935 -0.040564347 0.12140565 -0.03773611 0.17695309 0.109128505 0.04589009 -0.013714286 0.2196691 -0.05410681 -0.08139893 0.17174938 0.3277561 -0.021405233 -0.004742957 0.24392234 0.06638034 0.15969434 -0.08932846 0.08353907 -0.16045296 0.08868421 0.3641921 0.058651153 0.120303474 -0.14386953 0.032089517 0.043648556 0.08656998 -0.013426695 -0.0025997108 6.205954E-4 0.15122183 -0.18065289 -0.0010822704 -0.22093451 0.1352829
笔墨 0.23634696 0.057488568 0.14816387 -0.09908677 -0.1536169 0.33536148 -0.10622342 -0.037374914 -0.0050241253 0.2042747 -0.071806744 0.057626974 -0.010376788 -0.16652319 -0.09195854 0.14408477 0.3209493 0.13374707 0.032912247 -0.18579823 0.2181982 -0.0325138 -0.017507687 0.097682156 0.0784705 0.07705583 0.033095524 0.33583432 -0.09555208 0.08787851 0.17809758 0.11849197 0.19440338 -0.23791856 0.087914556 -0.20693769 0.16100398 0.031004675 -0.021860482 -0.043628465 0.049037974 -0.088755265 -0.15336248 -0.0796638 0.046286855 0.044029683 -0.16097276 -0.0352392 0.039614577 0.047557905
吹毛求疵 -0.32016322 -0.11120222 0.18060108 -0.021698274 0.14128032 0.16165823 -0.20678505 -0.14740081 -0.16105002 -0.020662097 -0.084261306 -0.12607099 -0.16296573 0.041876793 -0.16655584 0.2527205 0.17662703 -0.12866901 -0.020724248 -0.13395736 -0.037015025 0.079933934 0.08753693 -0.1618738 -0.13116941 0.20169543 -0.1510946 0.1599193 -0.19718823 -0.083792746 -0.039434485 -0.010357631 0.109737225 -0.1882379 0.28406724 -0.04061577 0.18103334 0.014636419 0.01480392 0.052571975 0.12086259 -0.13490556 -0.17176543 -0.01878572 0.103328325 -0.00503447 -0.074055426 0.088885196 0.22545917 -0.08486543
分辨率 0.06309256 0.08560359 -0.07451216 -0.14005175 0.03365144 -0.18079568 -0.059726477 -0.13668877 -0.089450814 -0.0795732 0.036164533 0.07875021 -0.15180263 -0.02784084 0.04004867 -0.123500586 0.09847384 -0.02080831 -0.007904286 -0.018000916 -0.19164163 0.099842496 -0.13865991 -0.25445834 -0.23362105 0.17120183 0.14887194 0.23452705 0.12333757 0.27477753 0.1126781 0.08645701 -0.023407048 -0.15407456 -0.04233711 0.04229798 0.063750334 -0.07848165 -0.0024352125 -0.24274918 -0.00931074 0.15797625 -0.43343222 0.21465486 0.14010727 -0.17529328 0.053053487 -0.007623363 0.10980169 -0.1025315
卢汝弼 0.22978991 -0.0834025 -0.22247328 0.10219724 -0.074223265 -0.0118398545 -0.10687906 -0.24593028 0.18318954 -0.062897146 -0.09705129 -0.19159567 -0.026940688 -0.12400472 -0.05924754 -0.04535214 0.20835929 0.1163423 0.22826983 0.085117 0.34324184 -0.18692854 0.15496531 -0.1413354 0.22898187 0.1673916 -0.12195992 6.5494434E-4 0.05218135 -0.12848213 -0.04004359 -0.12589937 -0.15848316 -0.11243545 0.021722341 -0.03059931 -0.13471775 -0.047049537 -0.05416226 0.10928031 0.14513835 -0.05098624 -0.19977885 -0.003708027 -0.009438076 0.14750151 0.024910275 -0.11176967 -0.26967797 -0.081823125
性 -0.2946363 0.18405229 -0.0066445093 -0.16359721 -0.10788423 0.16964485 0.1285527 -0.2305769 -0.053888693 -0.034140788 0.061798364 -0.016384117 0.03517944 -0.2742493 0.07646048 0.08323708 0.14026056 -0.03921638 0.035159964 -0.15254147 0.0028359287 -0.002097911 -0.2129892 0.055272564 0.1494366 0.06056425 0.17646834 0.21197215 -0.09667781 -0.08118167 0.03776132 0.33380124 -0.025799533 0.17731206 0.11585016 0.056662064 0.20581207 -0.057481688 0.20183307 0.1478533 -0.08516086 -0.20445122 -0.020960046 0.04292388 0.008212642 -0.038664836 -0.1936256 0.18044615 0.1846061 -0.07734618
张邦昌 0.21616371 0.059610605 -0.17013675 0.05321061 -0.11773894 -0.113617934 -0.009898366 -0.21093296 0.04516631 -0.25667158 -0.13195966 0.10985906 -0.031277496 0.00905608 -0.07099236 -0.11046559 -0.031131586 0.056638703 0.0779097 -0.011985062 0.24998677 -0.14169703 -0.06427651 -0.2522207 0.1841721 0.17335126 -0.11522189 0.032650977 0.024444394 -0.114436455 -0.020305635 -0.022087548 -0.071107335 -0.05622348 0.37099272 0.051468562 -0.030867426 0.01882059 -0.12057256 0.071079694 0.21924081 -0.09264976 -0.31397176 -0.056674182 -0.25494596 0.029493256 0.0142423725 -0.06117894 -0.2648267 0.09733359
治疗 -0.022880407 0.15216137 -0.0064276503 -0.084310986 0.15306981 0.09937319 -0.018754482 0.12212848 8.1393763E-4 -0.11650153 0.041533116 0.08934286 -0.15877798 -0.14404565 0.003940829 0.012799047 0.14054047 -0.08663905 0.058261164 -0.114048615 -0.11375878 -0.20148729 -0.168963 0.009081333 0.10339942 0.00764003 0.23410149 0.09124608 -0.04442856 0.1118559 -0.008693446 0.29955718 0.16138378 0.27262324 0.012017666 0.4285251 0.26639715 -0.10243597 -0.019441314 0.29758483 -0.10208825 0.03424556 -0.094630085 0.09278676 0.057734426 0.045717087 0.06105947 0.15683797 0.16560945 -0.047975242
四害 0.038868442 -0.15497279 0.20905803 -0.24963038 0.26708838 0.07511684 -0.22059463 0.037374437 0.10499266 -0.056951758 0.18546362 -0.08451066 0.02705406 -0.107968956 -0.028279942 0.11435336 0.062832996 -0.09667395 -0.021491509 -0.12133198 0.0749815 -0.015337618 -0.18750815 0.07803411 0.02360739 0.27325392 0.10041188 0.031441696 0.18571152 -0.2611256 -0.05880563 -0.08490289 -0.16909447 0.15846159 0.037361264 0.19759153 -0.121928506 0.016517645 0.059693854 0.23415133 0.24801613 0.20193699 0.076097205 0.10944911 -0.24728663 -0.014188245 0.019014526 -8.500753E-4 0.14866234 0.112141185
疏勒河 0.017720437 -0.006434212 -0.17200941 0.01885456 0.15297699 0.07149319 -0.22199352 -0.014818817 0.05665652 0.1337674 0.31300923 0.038451325 -0.051331248 0.07886211 0.17933542 -0.031995077 0.107497506 0.28967997 -0.23183556 0.18527833 -0.10176001 -0.23675993 0.0031084118 -0.0074009625 0.045356896 -0.011451288 -0.05510079 -0.00324857 -0.11527704 -0.1609223 0.1471031 0.19343324 0.07656933 0.056735687 -0.12941721 -0.008670869 -0.2705995 0.0021977513 0.22479638 0.17434394 -0.25199926 0.057403937 -0.19967213 -0.09649836 -0.060467035 -0.12623018 0.022891166 0.0049593477 -0.1588102 0.18491161
韩端 -0.16401435 0.22374909 0.1304572 -0.054967698 -0.014545596 0.2613655 -0.33127666 0.104748435 0.046180807 -0.031605143 0.11791338 0.11853853 -0.1790972 -0.13231641 -0.16230716 0.12596542 -0.12116884 0.05021217 0.1704274 0.06925188 0.10672988 -0.19824368 0.106590405 -0.17306718 -0.1524656 -0.06549743 -0.16513589 -0.12083892 -0.013766762 -0.027918432 0.032708637 -0.12949596 9.437946E-4 -0.26069403 0.2167437 0.09243301 0.080344684 -0.010515385 0.09743022 -0.13367175 0.22235614 0.055773187 -0.092576765 -0.13249236 0.16592486 0.17556329 0.10118726 0.09305815 -0.09877326 -0.19108146
乌兰夫 0.19943613 -0.071397364 0.042319387 -0.13523528 -0.016753599 0.13505782 -0.23079738 -0.022951854 -0.24818763 0.19149978 -0.07242678 0.16673681 0.088562995 0.26704934 -0.055588044 -0.12527575 -0.053564224 0.19907975 0.04447063 0.0118499985 -0.09315314 0.17293094 0.015494039 -0.07206288 0.08525144 0.35992908 0.093457475 -0.13542448 0.30166337 0.02365369 0.07534374 -0.004747048 -0.008140145 -0.11355774 0.22711112 0.1300832 0.11718993 -0.17116411 0.048204552 0.04429755 0.0049823583 0.048197187 0.04699313 0.112041585 -0.03612602 0.096094176 -0.13003156 0.11160262 -0.30446884 0.07207751
虎鲸 -0.034910277 0.25036702 -0.124920435 0.013160449 0.15421394 0.010664388 -0.1977176 -0.24654108 -0.06805322 -0.13901398 0.060437255 -0.080305524 0.010427275 -0.07753746 -0.263393 -0.145761 -0.26633462 -5.530936E-4 -0.17574638 -0.11626425 -0.035229452 0.14599796 -0.20592216 0.0710919 -0.27201116 0.04323329 0.15561502 0.07079818 0.012272747 -0.31379807 -0.031356215 0.08763772 -0.08467867 -0.113740385 -0.11536573 0.014946268 -0.16538723 -0.0039605037 -0.04200321 0.07762285 0.015596693 0.074915215 0.098298565 -0.13346256 0.12240575 0.2334892 0.038543355 -0.13554871 0.27647182 0.009969008
销售 -0.25908342 0.0041441517 0.0062206667 0.057403233 0.22461008 0.09382759 0.10756792 0.047341824 0.12108279 0.1124975 -0.04674622 0.080865085 -0.058847856 -0.059365623 -0.10713398 0.3298943 -0.1844323 0.13048598 0.1698935 -0.11251772 0.12084797 -0.12507659 -0.14583543 -0.087229475 -0.109878026 -0.016682655 0.007150126 0.11485594 0.2326659 0.17468259 -0.38128734 0.10459442 -0.0047112703 0.15303074 -0.18408476 -0.05526117 0.04666364 0.080817685 0.15923378 0.034208663 0.017469572 0.12434623 -0.09650398 0.025224835 0.11552982 -0.13521987 -0.2205346 -0.18804514 -0.09990762 0.16711535
信号 0.021484697 0.17013307 -0.3383093 -0.119452685 0.02938249 0.06999325 -0.14350894 -0.10375916 -0.16977836 -0.14327687 0.20531313 0.03404254 -0.045645904 -0.054922286 0.26873398 -0.0380618 -0.08456057 -0.09787754 -0.0154737355 -0.105558954 -0.104999475 0.00480009 -0.36485738 0.03590474 -0.18235317 -0.08787875 0.058780987 0.24573511 0.20724 0.21054351 -0.014769086 -0.038755972 -0.024606286 0.11763472 0.06697368 -0.25464523 -0.082476705 -0.003854746 0.0075830133 -0.022265906 0.042465866 0.12512717 -0.14274533 0.08279352 0.055700034 -0.041352384 -0.12085186 -0.021084646 0.006478271 -0.33195305
李冰冰 0.006022416 0.20394608 -0.08045043 -0.008711314 -0.045668736 -0.1424857 0.0055918796 0.12440583 -0.061740693 0.0976292 0.099096976 0.04553172 -0.31178704 -0.17082462 0.012452909 0.06503309 0.009595186 0.14834215 0.2210271 -0.041128453 -0.07373674 -0.04038408 0.31807667 -0.11066539 -0.11312184 0.24732533 0.033183545 0.11847424 -0.08006183 -0.016571034 -0.032453783 -0.23503722 0.06830155 -0.16223106 0.11118381 0.1634218 -0.2614096 -0.13164496 0.2937743 -0.04378111 -0.08890196 0.07350818 -0.054797765 -0.075421534 -0.06717738 0.119496785 -0.35196093 0.015665445 0.036125086 0.050432395
李贵鲜 0.26771012 -0.08637 0.039387397 -0.0012281061 0.051867377 0.0433055 -0.22361048 0.014380799 -0.13872717 0.2416395 0.0027863102 0.1028093 -0.05875344 0.15501286 -0.09011179 -0.1951905 -0.06155678 0.33058202 0.1302504 0.053961087 -0.20471025 0.13176975 0.083221935 -0.01973277 -0.18880607 0.18866952 0.06125886 0.04004703 0.15351723 0.07412099 -0.053385634 -0.073532574 0.13200378 -0.016973928 0.16169369 0.1515089 -0.06520623 -0.26289615 0.09350453 0.13546497 0.0695601 -0.13028443 0.014094544 0.15878555 0.073902525 0.03322386 -0.106438905 0.1487586 -0.34577456 -0.12286766
山东农业大学 0.18720114 0.10137807 0.0559981 0.054877833 0.03495035 0.07428146 0.23450297 -0.097794056 -0.27109239 -0.09956977 -0.008365855 0.12961943 0.17628026 0.17453688 0.13752784 0.051809683 0.10068585 0.25522402 -0.01200369 -0.12955537 -0.18594879 -0.06533398 -0.094752155 0.23920947 -0.037754152 -0.25176835 0.00953842 -0.16505815 0.013406778 -0.20156176 -0.060375396 0.008695477 -0.024222216 -0.21739882 -0.17960773 0.20301756 0.12646541 0.08107556 0.12656084 0.18615834 0.053965274 0.11131745 -0.10267677 -0.039608378 -0.26864663 -0.10028181 -0.20835915 0.09766757 0.012850801 0.050739314
垃圾邮件 0.0276978 -0.005306565 -0.12232933 -0.3328017 -0.007855088 -0.15505631 0.021724897 -0.11299954 0.06708339 0.10792017 -0.07666295 0.11721548 -0.13832395 -0.056908272 0.006550925 0.15575542 -0.2153473 -0.12674367 0.012613966 -0.2939166 -0.19637108 0.25139755 -0.32567897 0.06470623 -0.18574078 -0.0012438694 -0.138308 0.27766487 0.057177823 -0.11984454 -0.15579538 -0.04345763 -0.028416984 0.16065252 -0.037455097 -0.06377774 0.08005367 0.0074274605 -0.04353078 0.19557592 0.20125541 0.069894575 -0.13434897 0.005558398 -0.017177358 -0.01635093 -0.015092305 -5.517923E-5 -0.10703689 -0.25251928
贝加尔湖 -0.08130479 0.14003 -0.12592341 0.15252778 0.25030306 0.021639297 -0.14422694 -0.13860661 -0.09756143 0.060066354 0.21199399 -0.06245385 0.021401778 0.032489713 -0.063390896 -0.17601055 -0.07220324 0.15324365 -0.38724467 0.001700497 -0.03147581 0.07714692 -0.09273838 0.043428108 -0.06624192 0.08317007 -0.06258257 0.07224929 -0.11786686 -0.18097083 -0.01608728 0.33765677 -0.019703321 -0.114463225 -0.0036272123 -0.17596206 -0.13183421 -0.0890597 0.12923533 0.19105393 -0.20814888 0.17650555 -0.0512742 -0.15417902 0.12208723 0.10406246 0.22538956 -0.13272515 0.06859393 0.18134679
青浦 0.06328783 0.012795629 -0.107112505 0.14287233 -0.0025067194 -0.03002167 0.107306756 0.2050141 -0.14840719 0.09006524 0.06279349 -0.066007674 -0.086770296 0.08687986 -0.047757443 0.32142025 0.08027214 0.16304119 0.043725085 0.002257556 -0.08732677 -0.18766403 -0.13157363 -0.023273582 0.0846821 0.1591422 0.10303421 -0.21425273 0.39600146 -0.26257387 0.11066622 0.048104562 -0.04601131 -0.027645739 -0.17024028 -0.3493244 0.027688084 0.15595648 1.4117852E-4 0.1708951 -0.028232003 -0.010937332 -0.11128482 0.0015663002 -0.06961274 0.087941594 0.019807803 0.07122744 -0.2818441 -0.0802259
关咏荷 -0.033914723 0.23722968 -0.20088288 0.035536263 -0.06063612 -0.22024183 0.002885333 0.058439936 -0.035328366 0.032593645 -0.027843332 -0.039785147 -0.22735554 -0.093914755 0.029840916 0.06408459 0.103671744 0.09741676 0.23639236 -0.09244829 -0.031165272 -0.06672181 0.18307273 -0.017854717 -0.10332564 0.20844817 0.028062835 0.080858886 -0.14137858 -0.03508535 0.019560365 -0.32015988 0.07411128 -0.11504274 0.02926684 0.19423687 -0.3133156 -0.23940265 0.26357308 -0.00901055 -0.12723105 0.056902647 -0.059645437 -0.09908428 -0.09542625 0.06447195 -0.33772084 0.13479772 -0.0028779493 0.07106594
宠物狗 -0.34165195 0.036908682 0.011533615 0.13043144 0.20126171 0.013358755 -0.13520466 0.043128308 -0.17176946 -0.0018996042 -0.09411134 -0.17458089 -0.073997006 -0.14595062 -0.1369598 0.12182578 -0.042703945 -0.11960637 0.023887783 -0.118706964 -0.004348679 0.18364263 -1.7448618E-4 -0.079990305 -0.2605129 0.13136612 0.12878901 -0.09537284 0.009937962 -0.21129811 -0.2504825 0.034820892 0.22667958 -0.16095246 0.13489582 -0.07099126 -0.0040192264 -0.0068599205 -0.028497456 0.104997784 0.022996183 0.12727004 -0.013727853 -0.22182144 0.03614569 -0.004471145 -0.04032286 0.14484131 0.37841636 -0.19648246
新闻组 -0.09873107 0.0051282784 -0.17029525 -0.36055568 0.012895277 -0.19708693 0.03379227 -0.039428122 0.03750752 0.22916873 0.043562893 0.10264827 -0.13555542 0.08153885 0.005934727 0.05865827 -0.15641232 0.0036560863 -0.07517537 -0.2513213 -0.111470334 0.23712668 -0.088832915 -0.024057614 -0.3075912 0.018658878 -0.09201461 0.1672539 0.16250841 0.0041567837 -0.019408554 -0.06959493 0.008475573 0.21067433 -0.047892667 0.002628191 0.13727145 0.056368455 0.060665864 0.18834232 0.16910627 0.10217461 -0.061039098 -0.09000244 -0.0144060515 0.15224734 -0.187295 -0.2077876 -0.16529816 -0.27099288
哈尔滨理工大学 0.14117563 0.20018691 0.08799143 0.022948135 -0.029457953 0.068011574 0.29087147 -0.054723993 -0.40851912 -0.07651591 -0.02223034 0.27211258 -0.0044467486 0.23990841 0.07091396 0.079619415 0.21560894 0.08307658 -0.093495324 -0.16273326 -0.13288334 -0.2000524 -0.097779855 0.026460858 -0.00571764 -0.19597596 -0.123467594 -0.25235403 0.025707297 -0.086225234 -0.05574625 -0.112236775 0.027063103 -0.18072005 -0.05857351 0.02755774 0.03139569 0.029216284 0.16002549 4.6760256E-6 -0.018893592 0.033517778 -0.034607727 0.026743358 -0.11768286 -0.13492496 -0.3089344 0.08115941 -0.13185826 -0.069248885
明尼苏达州 -0.21437328 0.17589067 -0.10949932 0.4081343 0.17142616 0.045481678 0.03452124 -0.065944076 -0.26679122 0.20643625 0.016238796 0.022640139 -0.0050850864 0.12691501 0.07121618 0.020796115 0.04473218 0.06128633 -0.23230992 -0.15445168 -0.07608801 0.07365256 0.07454213 -0.18338853 -0.17420661 -0.06923306 -0.025618784 -0.1232224 0.10671074 -0.02275648 -0.12721308 0.030195255 -0.16517134 0.0033944328 0.020371154 -0.047900386 0.027302898 0.030757284 0.064023964 -0.035878565 -0.20242774 0.060714647 -0.012154205 -0.35303947 -0.06810648 0.3130896 0.11523981 0.03291911 0.068520665 -0.17066237
忽悠 -0.2831551 -0.22901729 0.05192229 -0.19104165 0.03431288 0.03513694 -0.15583283 0.047348585 0.0011007681 -0.113058366 0.12721315 -0.09011774 -0.25327754 0.021365019 -0.06486945 0.2521943 -0.14300783 -0.08486371 0.18345031 -0.071216576 -0.045908574 -0.029997073 0.07059788 -0.031923763 -0.146734 0.13884558 -0.22734335 -0.019353092 -0.10341389 -0.2084476 -0.17858055 -0.120310426 0.28691027 -0.09896585 0.2001643 0.033760857 0.011092798 0.035392344 2.546787E-4 0.057780553 0.07634088 0.24619387 -0.2486217 0.059406534 0.03369724 -0.049827475 -0.216042 -0.09974984 0.16659406 -0.056236614
skype -0.013588954 -0.028170785 -0.1527442 -0.25095206 0.045375492 -0.24410395 0.15929136 0.009540621 0.23649733 0.09505446 -0.04730579 0.13438022 -0.11972646 -0.040128008 0.045136556 0.05242006 -0.20476028 -0.012505284 0.025082871 -0.19217545 -0.14976972 0.14697443 -0.084529094 -0.045191403 -0.39534485 0.0054461197 -0.17427395 0.0879303 0.12623021 0.024711883 -0.10059613 -0.10155544 0.1092045 0.16925529 -0.032995228 -0.09799696 0.11902053 -0.07999765 0.09219009 0.13523354 0.15390201 0.19181722 -0.2344139 -0.017577358 0.17908894 0.10528334 -0.07893472 -0.13591781 -0.117122784 -0.24372932
体细胞 -0.10979778 0.22769998 -0.20069368 -0.09595793 0.06689524 -0.049874693 -0.036438234 -0.03938718 -0.07416257 -0.1891461 0.0425558 -0.03181907 0.27027234 -0.11270707 -0.14244166 -0.11063658 -0.056836184 0.0043025473 0.015288113 -0.18410173 -0.051792655 -0.14126037 -0.22049755 0.24205576 0.024705699 -0.08158317 0.35196185 0.23304224 -0.059442926 -0.103387974 -0.05421623 0.23606347 0.17079867 0.016314087 0.07667039 0.1075893 0.15837234 0.013928274 0.14152937 0.14496255 -7.234221E-4 0.033404168 0.27568066 0.083868824 -0.19382939 0.20231017 -0.006157929 0.031735864 0.101060316 -0.041309245
灌木 -0.10046841 0.1348164 -0.087547936 -0.017884038 -0.083373904 -0.079265505 -0.17588271 -0.235869 0.05808937 0.0685055 0.3054494 -0.09222575 -0.008567979 -0.052278418 -0.14642148 -0.11513703 0.13895659 0.27585894 -0.052956354 -0.093832865 0.043906342 0.17541255 -0.31050795 -0.03242148 -0.07760524 0.06453729 0.11909243 -0.13503793 -0.07399916 -0.01782471 -0.096639946 -0.06572025 -0.038438547 -0.10079293 -0.2446709 0.060930684 0.18464974 -0.02808566 0.04358113 0.018231913 0.017989848 -0.18534242 -0.042882487 -0.21707898 -0.2283185 -0.069243535 0.060868658 0.052798238 0.12216395 0.37818423
海绵 -0.19149257 -0.023119763 -0.10318165 -0.1804725 -0.018723767 -0.12390401 -0.028639644 -0.06716276 -0.08116872 -0.049510017 -0.043673027 0.14216359 0.009467009 -0.09731755 -0.14416938 -0.01645021 0.009540121 0.094094835 -0.07952403 -0.1481625 -0.15236165 -0.10956592 -0.21963653 0.12275609 0.07263721 -0.029898014 0.27296197 0.172794 0.0593439 -0.39998206 -0.22406086 0.29445022 0.13472174 -0.02164816 -0.0025297345 0.022939825 0.111008324 -0.29500166 0.044782866 -0.09020974 -0.21399988 -0.07665686 0.079472154 -0.19356272 0.011132494 0.03260946 -0.09600343 -0.05557684 0.20064232 0.11057832
坎儿井 0.18754834 -0.15912399 -0.105835944 -0.12919036 0.2477342 0.21438274 -0.19333091 0.0050173323 -0.043397713 0.32180136 0.3256716 -0.08020418 0.043447863 0.09578219 0.12287915 -0.030320732 -0.047874566 0.18321672 -0.27905193 -0.06238492 0.02168827 -0.14848113 -0.030981341 0.03943434 -0.049993604 0.045988638 -0.08130951 -0.07924074 0.034582045 -0.064704955 0.13444762 0.30432606 -0.059330355 -0.048983227 -0.06667329 -0.10588498 -0.08341701 0.040729504 0.05254423 0.083037935 -0.24076374 0.07123858 -0.2343909 -0.040843774 -0.0021025003 0.0075588804 0.1839352 -0.0624108 -0.12353059 0.18189262
黄宗泽 -0.058771707 0.25866187 -0.14246035 0.027343448 -0.014587251 -0.22198449 -0.001244856 0.1001219 -0.052009903 0.05088219 -0.031006245 0.019193212 -0.25442126 -0.12393034 0.11276719 0.0731183 0.007156732 0.14841068 0.15333536 -0.11418344 -0.011782022 -0.023760399 0.22088277 -0.09936948 -0.08424582 0.23980854 0.029871576 0.08822005 -0.13544692 -0.021112282 -0.04027709 -0.38134825 0.1541638 -0.15976611 0.09048266 0.22816102 -0.30644792 -0.14358523 0.19637892 0.024744742 -0.09776082 0.042532876 -0.06250735 -0.083653025 -0.07483326 0.08226134 -0.25049153 0.14887309 0.016017918 0.06440109
唐卡 0.28197137 -0.070765026 -0.113967836 -0.15809473 -0.13585563 0.29749292 -0.13070066 0.28265852 0.060563497 0.097755246 0.024336882 -0.09845279 -0.067082845 -0.028192377 -0.21837921 -0.10051452 0.0643957 0.06488638 -0.014939773 -0.26502195 0.19784436 -0.057809666 0.096656926 0.026045332 -0.0454839 0.1742368 0.10383158 -0.005948892 -0.02955789 0.10045238 0.017665856 0.24415311 0.016160036 -0.06629014 -0.11637496 -0.102154724 0.123080425 -0.22488898 -0.14693902 -0.040135354 -0.34045193 0.27924156 -0.016252553 -0.026818866 -0.027492333 -0.021213464 -0.11575471 0.057333905 -0.077908576 0.07159671
李彩桦 -0.11479508 0.15214711 -0.15105234 -0.015060739 -0.023061173 -0.14467569 -0.018396802 0.09419794 -0.07912761 0.016183486 0.047697496 -0.09003183 -0.2510344 -0.12308126 0.02457528 0.071697295 0.03039282 0.062827244 0.12920728 -0.1545058 -0.053296268 -0.0046620793 0.3262714 -0.027831607 -0.06062518 0.16200252 0.042556226 0.07598831 -0.16237256 0.04780056 -0.006486338 -0.3113917 0.2345586 -0.14940397 0.07701679 0.1522057 -0.32449335 -0.235791 0.25423568 0.0372266 -0.021842888 0.029197317 -0.07088075 -0.09297167 -0.07660424 0.14086963 -0.31240323 0.09668654 0.013693254 0.09620941
贫血 -0.08061228 0.23552132 -0.12788972 0.02796615 0.03183116 -0.09520312 0.0349713 0.06031379 -0.03141852 -0.08433327 0.03374924 -0.03326097 -0.04723355 -0.14400594 -0.02812842 0.14552464 0.06157054 -0.14256534 0.14546616 -0.10209251 -0.07787128 0.04064885 -0.24535902 0.04439891 0.18187049 0.17780057 0.29063922 0.03627004 -0.04513954 -0.018961482 0.045741234 0.32213265 0.06531287 0.20912582 0.16087179 0.37688267 0.13948655 -0.1954978 0.017870491 0.3139424 -0.06289108 -0.049234744 0.011245203 0.11451722 0.174204 -0.051668398 0.07680232 0.13366918 0.13156688 -0.012793107
宠物犬 -0.23725852 0.12897018 0.05786848 0.06736072 0.1261959 0.08618842 -0.19165415 -0.05390483 -0.20907815 -0.038798884 -0.08290973 -0.08909942 0.018356567 -0.02405199 -0.12796538 -0.022910977 -0.12148889 -0.18062672 0.10633554 -0.18946223 0.109596364 0.14176586 0.0054329475 0.02126623 -0.27351063 0.2621131 0.23407552 0.009680531 -0.04579659 -0.26663542 -0.17872223 0.10642873 -0.03294967 -0.12508643 -0.04740759 -0.15106046 0.19553415 -0.09228499 0.093252085 0.04130067 0.13645822 0.16802843 0.059718315 -0.103008315 0.07649987 -0.06398021 -0.1067409 0.17733973 0.3457242 0.06338939
王羲之 0.489703 -0.04810964 -0.04190925 -0.0460251 -0.10811215 0.3362341 0.00461407 0.09214017 0.06214974 0.104986586 -0.2370273 -0.2008523 -0.028446674 -0.04223054 -0.20935455 0.15161219 0.109742776 0.22936453 -0.025421133 0.11616795 0.21651924 -0.026338357 -0.044506337 0.006288964 0.02506462 0.2378481 0.0172413 0.058349505 0.017998405 -0.13414186 -0.005118899 -0.03969405 0.08183565 -0.15865214 0.12532783 -0.038893692 0.23133253 -0.103771985 -0.05411265 0.11982561 -0.007833622 -0.09425352 -0.17182297 0.075078495 -0.030055216 0.13976382 0.008049288 -0.15727213 -0.05304035 -0.088946246
水星 -0.056542024 0.0060878154 -0.17254709 0.099790044 0.23008244 -0.033244487 0.025237145 -0.033607 -0.27189282 -0.21063544 0.32583195 -0.1636653 0.008147979 -0.21570343 -0.19900054 0.026109058 0.025858657 0.095507875 -0.09685358 -0.062173698 -0.24941978 0.14418499 0.04412156 -0.14733441 -0.0028392465 -0.08129719 0.058717564 0.29446045 0.27734885 0.13659173 -0.03513143 0.14694734 -0.018204968 0.01119023 0.14137575 -0.071390904 0.022808086 0.10400554 -0.047175292 -0.031999856 -0.14053151 0.20665309 0.11542187 -0.04897512 0.08281145 0.14081569 -0.099324286 -0.088558 -0.018071774 -0.23496665
治病 -0.013413669 -0.11678696 0.089695804 -0.042788345 0.1948181 0.18668292 -0.121003404 -0.010044259 -0.02611137 -0.026734421 0.14990771 -0.050101712 -0.031378385 -0.099837035 0.052935682 -0.08130341 0.13701935 -0.11250454 0.2172333 -0.23686928 0.2966745 -0.1540498 -0.027020426 -0.004188338 0.21778925 0.29657456 -0.09438184 0.014464723 0.101424575 -0.038375158 -0.022053408 0.12250634 0.09203956 0.12009387 -0.0029354086 0.24681906 0.31286374 -0.052284002 -0.18165138 0.22916462 0.014599914 0.05902776 -0.1887892 0.05416208 -0.032005575 -0.025793236 0.09519379 0.14147663 0.26509768 -0.098799504
南相美 -0.16891374 0.17538321 -0.20342885 -0.04302454 -0.03681256 -0.07251258 -0.041123774 0.12860802 -0.039402667 0.06852843 0.061595615 0.06272194 -0.14254715 -0.020782776 0.16064957 0.03596088 0.085129835 0.10036389 0.2559064 -0.107043736 -0.030836659 -0.061828293 0.4603605 0.021045286 -0.18457608 0.11228111 -0.07753171 0.067816 -0.09706913 0.036741313 -0.087181725 -0.10923931 0.14501725 -0.17489901 -0.02433518 0.15584849 -0.3211584 -0.10426516 0.25520706 -0.10663825 0.030764075 -0.0735319 -0.03127073 -0.12704031 -0.0802141 0.12297963 -0.12844118 0.20825696 -0.105025865 -0.16985123
雉鸡 0.17206924 0.20348234 -0.13913718 -0.012441724 -0.025875973 0.047990076 -0.10557388 0.019115495 0.0495336 0.10129985 0.015293741 -0.12551837 0.109389365 -0.18464282 -0.21547642 -0.23500127 0.0033645006 0.20919833 0.027900178 -0.26514035 0.085331835 0.05798448 -0.14772806 0.07749073 -0.116134845 0.01815362 0.25658333 -0.02071716 0.10223758 -0.30246434 -0.09250367 -0.015854001 -0.055658348 -0.09846296 -0.03650909 0.03121609 -0.10259984 -0.03305339 -0.016844478 -5.0761504E-4 0.16206662 0.15456377 -0.13052273 -0.27333835 0.11748406 -0.13235965 -0.11397088 0.106360964 0.30470732 0.23882991
索马里 -0.101721466 0.19670065 -0.003606168 0.21237488 -0.06450156 -0.009407755 -0.124710344 0.06290477 -0.13408574 0.09506624 0.11356479 0.10838075 0.083759084 0.24426375 -0.041465465 -0.02235534 -0.1213654 -0.08948483 -0.29620522 -0.09767643 0.022738555 0.14257331 -0.16321653 0.025744323 -0.13360608 0.20776173 -0.25061777 0.06176721 -0.08447936 -0.034775943 -0.17285974 0.11474538 -0.18911487 -0.0059002596 0.14704151 -0.08253646 -0.18817177 -0.057388745 -0.013055557 0.17080243 -0.16150509 0.16733278 0.12952647 -0.19961323 0.23060007 0.18349473 0.03810001 0.15176684 -0.19839256 0.14372163
东北农业大学 0.1345572 0.13641395 -0.033450287 2.1346356E-4 0.0481835 -0.05102623 0.23221333 -0.069823734 -0.3557065 -0.05175926 -0.05667592 0.08897846 0.16835232 0.105615206 0.047878116 0.029250635 0.08401572 0.22422133 0.0049725347 -0.1820439 -0.1393757 -0.17206974 -0.17655976 0.23963137 -0.09024411 -0.24090546 -0.021883728 -0.20862783 -0.12002779 -0.17212018 -0.018578568 -0.017841266 -0.066750035 -0.184031 -0.10695403 0.21180116 0.08869509 0.12476037 0.15344152 0.10650104 -0.005621184 -0.003189468 -0.12501511 0.003507003 -0.19583221 -0.07992198 -0.32122874 0.12370549 -0.01899949 0.015529614
cfo -0.12432002 0.04057393 0.058675077 0.24329557 0.07972098 -0.058201354 0.14279717 -0.115839496 -0.02439083 0.18357232 -0.09036932 0.08132884 -0.258866 0.060595136 -0.27483413 0.09473749 -0.08634519 0.06603624 -0.058192406 -0.0694735 -0.19299318 -0.10396442 0.17898169 -0.14790183 -0.27457467 0.0017776547 -0.122263215 0.18139163 0.17176892 -0.06212577 -0.21275748 -0.10733402 0.041925754 0.110269874 -0.07604012 0.15336666 0.2740272 0.04661392 0.22870488 0.03288568 0.018636085 -0.047898617 -0.06767174 0.119378425 0.020728745 0.023144674 -0.25799453 -0.2271003 -0.13788305 -0.05997077
曹格 -0.19273561 0.052812774 -0.114108324 -0.10553474 0.09794651 -0.1602842 0.05290218 0.17014636 -0.030658375 -0.034771014 0.043507803 -0.021090506 -0.2885932 -0.042505566 0.09125721 0.06688687 -0.011701013 0.040732097 0.004423048 -0.11835055 -0.02976924 -0.070898995 0.37692472 0.005792974 0.025837246 0.11622065 0.078504264 0.053072803 -0.16870993 -0.030795678 -0.16165307 -0.27708447 0.29029468 -0.091082275 0.095295906 0.042139746 -0.15259477 -0.21865284 0.1860466 0.010574991 0.1280555 0.055868622 -0.09876647 -0.07177146 0.0030080723 0.3404551 -0.1859365 0.034729365 -0.1632676 0.15860124
红火蚁 -0.091779865 0.21279119 -0.15225512 -0.107501574 0.18072519 -0.046869718 -0.24925025 0.051086493 -0.024193853 0.039039187 0.05940473 -0.049318876 -0.042256564 -0.11305659 -0.13260932 0.03636871 -0.18479264 0.06267781 -0.24864002 -0.34231782 -0.076158345 0.04931764 -0.13886125 0.21477415 -0.045897897 -0.016514327 0.09661004 0.12278276 0.030968817 -0.43253946 -0.25680545 0.07123557 -0.043531135 0.105788976 -0.07529219 0.21164307 -0.07533573 0.16732836 -0.008320418 0.1862824 0.022313211 0.12492176 0.0018204778 0.022573283 -0.0764604 0.1221207 -0.06516365 0.07671165 0.11525803 0.0324057
歌手 -0.18627876 0.26808047 0.078995034 -0.07839183 0.10885296 0.07815622 0.014237027 0.096949235 -0.09962171 -0.008366833 0.02563917 -0.097608946 -0.34229833 -0.0040128333 0.09887671 0.1676004 -0.111550234 0.066081576 -0.069686584 -0.1310539 -0.059152137 0.022765802 0.47525415 0.047252048 -0.0752632 0.12583944 0.022375673 0.023586273 -0.05166266 0.132673 -0.22195399 -0.11298442 0.15807612 -0.048191305 -0.032517225 -0.03477153 0.09206587 -0.15809153 0.13437675 0.037631243 0.08626631 0.043639198 -0.072656564 -0.14152841 -0.098457575 0.35440466 -0.11886108 0.001707453 0.011781398 0.18894956
中华人民共和国中央军事委员会 0.20082839 0.077731356 0.19335647 0.072365165 0.02115719 0.08975125 -0.20343015 -0.033321902 -0.12276691 -0.050156128 -0.03649523 0.1729075 0.08192765 0.24050578 -0.13275295 -0.073238775 -0.13656339 0.2920258 -0.04940496 -0.052960053 -0.26397586 0.165919 0.091159075 -0.085432686 0.018482229 0.16656214 0.07265272 0.08203388 0.10632832 -0.019796409 0.13324419 -0.10118445 -0.22940013 -0.06896259 0.3282907 0.12377085 0.04317095 -0.06968282 -0.034645677 0.01419396 0.014184298 0.053592138 0.19348988 0.18118702 0.079116166 0.011660216 -0.21387747 0.1906979 -0.24761483 0.100574605
场效应管 -0.13119811 0.18904853 -0.20250021 -0.25600392 -0.094208755 -0.028093873 -0.16109318 -0.17834975 -0.17252018 -0.15281416 0.039149765 -0.06071639 0.062015068 0.01920913 0.26753393 0.04453165 0.06020803 -0.042396456 -0.091733314 -0.033190746 -0.12749627 -0.23711249 -0.14378284 -0.0459063 0.016005887 -0.11533896 -0.040817607 0.2011673 0.28267187 0.27985024 -0.09112348 -0.07011533 -0.14020655 -0.055554748 0.09668827 -0.13660231 0.04296807 -0.3006399 0.061336428 -0.17076404 -0.17625524 -0.07451696 -0.0399005 0.22399276 -0.07184932 -0.06683718 -0.04379256 0.09225 -0.0029482287 -0.12363696
龙门石窟 0.4065166 0.025266852 -0.20239392 -0.09271997 -0.09163057 0.26760194 0.016682057 0.16461127 0.15255618 0.16897266 0.17698798 -0.11633616 -0.07045322 0.024105748 -0.2970361 0.02003404 0.06223743 0.28835055 -0.023266494 0.005662913 0.012218832 -0.16446465 0.08484546 -0.029460106 -0.038714513 0.18799023 0.007938156 -0.055566486 -0.009192255 -0.07281413 0.26283884 0.122860536 0.067295656 -0.0699179 9.0651895E-4 -0.11470748 0.08258032 -0.016568322 0.007836464 0.121004365 -0.23812549 0.12364208 -0.20113014 0.1345156 -0.084027134 -0.09910289 0.01927188 0.04457815 -0.19871238 0.015837422
武昌鱼 0.09228087 0.13408455 0.019921517 0.10726381 0.14701577 -0.09705471 0.07856149 -0.097966254 0.023480173 0.1544684 0.032791153 -0.1703801 0.13959539 0.07449887 -0.124574475 0.028924268 -0.22424854 0.23724833 0.19443509 0.10965353 -0.06922919 -0.03444363 -0.06868958 0.2942856 0.073381886 0.10233735 0.102516636 0.13382691 0.24387051 -0.24903204 0.04016372 -0.023567438 -0.033858508 -0.0903196 0.0876066 -0.07413504 0.028093431 -0.18784986 -0.030340746 0.24212381 0.22736451 -0.080273174 -0.28379318 -0.2185471 0.152836 0.015300446 0.01729636 -0.0010325313 0.23169245 0.12305007
青海 0.026143959 0.08224851 -0.1845133 -0.049407758 -0.06396012 0.15343638 -0.06480305 0.115387686 -0.25289363 0.1185291 0.22228865 -0.0019997733 -0.100467086 0.19069664 0.20925783 -0.10190855 0.026157055 0.11001951 -0.029411927 -0.09875112 0.11774816 0.028151276 -0.048256326 0.040476102 0.12469355 0.057266314 -0.2073174 -0.14187494 -0.035696153 -0.27628857 -0.001759686 0.20874272 0.11782337 -0.0039185043 -0.25296405 -0.049920555 0.011014602 0.011124087 0.2879994 0.1957527 -0.14114675 0.23213908 -0.14996178 -0.008126258 0.09880722 -0.0151811065 -0.063944474 -0.022951283 -0.21684155 0.2789779
毛泽东 0.24768998 -0.14201945 0.13507931 -0.18594645 -0.06833391 0.17302828 -0.20322475 0.16651301 -0.3133187 0.10536709 0.034874436 0.0990977 0.045433957 0.16821128 0.011367598 0.016641458 -0.020842457 0.17954268 0.039736528 0.08347697 0.009302105 0.23844743 -0.16211739 -0.046477526 0.0685037 0.402922 -0.023982594 0.022187002 0.25552276 0.061638024 0.12925422 -0.050061256 0.019367827 -0.098072775 0.22631569 0.11901806 0.11212239 0.048664324 -0.009655786 0.042188473 0.0120794345 -0.020881405 0.06892254 0.14142366 -0.03529069 0.2452208 -0.17712772 -0.08849347 -0.08807044 0.045525342
周华健 -0.17803246 -0.04104965 -0.02594267 -0.120373756 0.16222487 0.002643173 0.01133847 0.11333137 -0.024032604 0.009107134 0.05662875 -0.047621813 -0.3363457 -0.044431888 0.032132875 0.04184419 0.044730876 0.15328465 -0.035167564 -0.10582592 -0.10431558 -0.09424598 0.30420256 0.03741427 0.019593606 0.096434005 0.10817547 0.03712881 -0.22911811 0.09329822 -0.03688831 -0.23283134 0.31436792 -0.11029716 0.026498845 -0.03922202 -0.07887042 -0.11654849 0.14271735 0.019938776 0.13435996 0.02886761 -0.16460712 0.0090024 0.04627851 0.3470339 -0.26639095 0.016348066 -0.13662362 0.2909138
程序语言 -0.15155354 -0.006733963 -0.250647 -0.44718218 -0.028476218 0.005911821 0.023931831 -0.12413539 -0.009415334 0.16290803 -0.100682504 0.050495286 0.028350264 0.011948718 0.07721415 0.09771504 0.013963328 -0.094945885 -0.052951124 -0.05568253 -0.11452018 -0.006828487 -0.13064018 0.10091737 -0.33047077 -0.15094066 -0.25934762 0.22808093 -0.023121944 0.052196287 0.040871173 -0.123362415 -0.069076896 -0.037846424 -0.12701873 0.07752958 0.28897107 3.02315E-5 -0.11779487 0.17532595 -0.11048633 0.15308702 -0.23256786 -0.007037146 -0.05108687 -0.035538636 -0.22087164 0.061107446 0.063143425 -0.0895217
信息管理 -0.092181385 0.0619479 -0.044897757 -0.059881594 0.028474005 0.15729226 0.3273282 -0.19456989 -0.2227693 0.036197 -0.09045152 0.23335749 0.037435304 -0.07036378 0.015405787 0.020737695 0.057577282 -0.033443596 -0.06334053 -0.047505528 -0.059598725 -0.10758877 -0.24388513 0.03173634 -0.29669324 -0.07454105 -0.094616674 3.231426E-4 -0.045078643 0.041686088 -0.078414224 -0.16342945 0.0024793004 0.08227437 -0.28602704 0.09039367 -0.015537347 0.18067855 0.046123225 0.2736852 -0.07961301 0.12141447 -0.16569147 -0.06864593 -0.051257208 -0.25147375 -0.34102568 -0.012006624 -0.11497288 -0.09994294
声学 0.021656916 0.1186536 -0.14317577 -0.20518672 0.09093978 0.2524728 0.13379855 -0.19943786 -0.41085315 -0.024524705 0.023243945 -0.031134427 0.007233578 0.050116822 0.02800676 -0.15446126 0.045258474 -0.11182455 -0.25128672 0.046546735 -0.1066034 -0.2318626 -0.17824611 0.083110146 -0.02563035 -0.16971645 0.07327672 0.18222277 0.058936834 0.21885566 -0.06082973 0.043701667 -0.00902909 -0.07265069 -0.060388085 -0.10062814 0.035791155 -0.095710136 0.035024427 0.056228425 -0.23194218 0.09128316 -0.27078757 0.033831365 -0.1559719 0.018744117 -0.20973673 0.035392366 0.042877804 -0.20984946
鱼鳞病 -0.08099783 0.20740779 0.032256708 -0.086746834 0.018096305 -0.09546056 -0.1184715 -0.007349871 -0.07761793 -0.051499873 -0.021367537 -0.10051243 -0.13829753 -0.19159713 -0.14999788 0.02216527 0.24774471 -0.075969085 0.11806718 -0.14327343 -0.1900528 -0.06533852 -0.19513088 -0.041113563 0.06561362 -0.017483167 0.14461407 0.044258133 0.07459833 -0.10999054 -0.01913597 0.33042023 0.17738973 0.2501107 0.03473779 0.3848766 0.19914593 -0.1934703 -0.017227165 0.26008564 -0.17768627 -0.0634728 -0.054731555 0.019483447 0.15304185 -0.015323362 -0.025188865 0.014304999 0.17867854 -0.0037975933
数码相机 -0.10480614 0.058700312 -0.13747483 -0.3199401 0.034247063 -0.11230895 0.05561529 -0.024328006 -0.10661335 0.012338224 -0.027103886 -0.05248754 -0.17478736 0.009613855 0.043462645 -0.013259605 0.023189357 -0.17209227 0.16575842 -0.2010615 -0.1780469 0.023437971 -0.21441062 -0.23973674 -0.20840302 0.062351894 -0.0906368 0.18452959 0.19681057 0.35387048 -0.14147964 0.09719585 -0.06961741 -0.004517472 -0.017772647 -0.080402955 0.14498864 -0.13941368 -0.018788373 -0.13560657 -0.0032404037 0.19558898 -0.33645076 -0.0062506 0.18723863 -0.0957195 -0.10098178 -0.050753705 -0.026350643 -0.04820447
齐齐哈尔 0.048470005 0.15192547 -0.09215509 0.008300948 -0.05850267 0.11813528 0.16913295 0.074385695 -0.3889416 3.6615314E-4 0.016110701 0.18603162 0.007314987 0.2760452 0.21305759 0.17352065 0.17992096 0.24718262 0.023499109 -0.104549795 -0.0055934624 -0.08032788 -0.15412247 0.01392598 0.1567487 -0.03826537 -0.07325654 -0.28646183 0.011658723 -0.27797356 0.15960558 0.10150139 0.012768383 -0.107828274 -0.057792384 0.0137271 0.004312876 0.12658417 0.18533957 0.03880067 -0.036294002 0.14407687 0.0070172152 -0.0082083065 0.06386187 -0.056276914 -0.2261228 0.15757425 -0.19833823 0.051069766
东欧 -0.055840444 0.15689938 0.14946741 0.09484939 -0.05895906 0.17694984 0.016609835 -0.07529971 -0.28678218 0.12622918 -0.048997562 0.061926704 0.10796862 0.1739775 0.03210888 0.03196555 -0.06852869 -0.17077099 -0.21951923 -0.01130541 0.030616183 0.07870162 -0.25383398 0.10006231 -0.16781487 0.19090666 -0.2272659 -0.053484395 -0.074182466 -0.01681252 -0.11055598 0.14732344 -0.14965297 0.06697437 0.13207594 0.005475144 -0.06460507 -0.013779257 0.17387559 -0.027738065 -0.29707485 0.22772709 -0.03418828 -0.112207316 0.09075856 0.22564268 -0.09119763 -0.1416811 -0.16616255 0.28368202
炼金术 -0.13073535 -0.31944034 0.0038014185 -0.11298235 -0.047694765 0.12475912 -0.039324075 0.048787892 -0.22493154 -0.11771959 -0.0014342862 -0.23157866 -0.06543653 -0.21029796 -0.15085226 0.13571677 0.0554492 -0.06675827 -0.1702919 -0.105123006 0.12319977 0.0026510793 -0.016514337 0.15080018 -0.019305244 0.11780147 -0.14008479 0.15241818 -0.104907304 0.061954528 -0.13774632 0.16952512 0.1262296 0.07382131 8.248406E-4 0.06286181 0.24930121 0.13033295 -0.15992144 -0.06207394 -0.3566115 0.2847707 -0.02196796 -0.10202191 -0.15469718 0.18693374 0.044451408 0.07984888 -0.028653312 -0.10957301
张智成 -0.14981028 -0.03065758 -0.076063685 -0.12822154 0.1448252 -0.0676119 0.028129546 0.20159036 0.05457622 -0.017575668 0.1366745 0.025381114 -0.29771274 -1.3763386E-4 0.03257503 0.06472793 0.03815712 0.10135376 -0.026883641 -0.14674102 -0.073413886 -0.12324266 0.31449467 -0.07973235 0.003642722 0.10775895 0.03256274 0.011192614 -0.19124576 0.10204748 -0.10935254 -0.15978062 0.33721584 -0.026991054 0.08879848 -0.04406891 -0.00888118 -0.16840796 0.10019327 -4.4476253E-4 0.16378944 0.055442873 -0.04931243 -0.13884725 -0.01635144 0.37485653 -0.31534538 0.048166033 -0.07389822 0.22679652
罗锐 0.13685875 0.08820989 -0.09854582 0.058764726 -0.21082102 0.037787873 -0.052895922 -0.15013003 -0.073875144 -0.21195428 0.10447223 0.104526564 -0.25983316 0.0865992 -0.036814593 0.11069389 0.1350223 0.13058162 0.10328176 2.9794226E-4 0.050767634 -0.21493122 0.2513124 -0.052507944 -0.09268381 0.20505829 0.08326882 -0.1175221 0.026691848 -0.062400796 -0.09041875 -0.19135457 -0.19185387 -0.25989762 0.03697324 0.39224944 -0.03120372 -0.027710045 0.17059329 -0.022886647 0.13096948 0.08792187 -0.030138342 -0.18567006 -0.08766616 0.142805 -0.21709275 0.12826954 0.008332217 -0.06249586
营养配餐 -0.1360449 -0.021670304 -0.019682068 -0.08873528 0.21919206 0.13889557 0.32377648 0.03661253 -0.14020936 0.09315031 0.086908475 0.20380193 -0.029203672 -0.035039905 -0.11004537 0.033737913 -0.010548578 -0.10026772 -0.025732836 0.075438865 0.14242318 -0.18749774 -0.032766797 0.007684777 -0.1727394 0.25053623 0.27091137 -0.033977643 0.09097074 0.04882864 -0.04758101 -0.03775982 -0.11176787 0.059847362 -0.23067415 0.13714607 0.06022558 0.008838298 -0.09529579 0.20923334 0.18177581 0.15716368 -0.025923828 -0.090199746 0.030012606 -0.36899233 -0.13712116 0.22984612 0.10536788 -0.14458513
金海心 -0.16568564 0.06851056 -0.019103177 -0.10761059 0.07175471 -0.07752223 0.049753744 0.10565331 -0.011257771 0.03877156 0.071196236 -0.07773206 -0.28283972 0.0019005788 0.10188482 0.023423038 0.061106566 0.09483679 -0.0012209862 -0.20018464 -0.102412686 -0.042587604 0.38625374 -0.02720272 -0.003834345 0.16485623 0.14382996 0.05827104 -0.17860568 0.057886127 -0.13952625 -0.16690415 0.3233069 -0.15085284 0.10326101 -0.07974019 -0.15045498 -0.122144274 0.19048972 0.0377897 0.053867582 0.12470115 -0.12952375 -0.08088774 0.034329183 0.28037113 -0.31593385 0.022323709 -0.027109694 0.1907155
须菩提 0.0116569875 -0.051824592 0.10181005 0.045207717 -0.058256324 -0.02716541 -0.09094075 -0.13148169 0.15112773 -0.12803303 0.34018645 -0.025437457 0.10338294 -0.10530337 -0.076095685 -0.08091628 0.2723603 0.066157825 -0.0865317 -0.2876086 0.32567957 -0.032617986 0.13890527 0.17395616 0.014175977 0.09320676 -0.21548085 -0.0074752006 -0.09050726 0.05497787 -0.060804255 -0.17048655 -0.02513291 0.06368857 0.08793443 0.0035555996 0.09815191 -0.25175026 -0.11949942 0.11912412 -0.22070405 0.069601856 -0.107021585 0.19154193 0.06148099 0.05245721 -0.15585883 0.11798055 -0.15615186 -0.23625648
傅聪 0.02983442 -0.14666675 -0.094377816 -0.012351718 -0.1088994 0.23306572 -0.13362697 0.10386183 -0.2566575 0.20237441 -0.09990012 -0.056174945 -0.12744127 0.08201849 0.19886172 -0.0027033885 0.08282284 0.02672941 -0.12178697 -0.005679684 0.11867183 0.008852876 0.040134892 -0.051530715 0.0074999984 0.22884691 8.530196E-4 -0.09008587 -0.06521414 0.1684819 -0.31195474 -0.08673758 0.1857289 -0.17999315 0.2709239 0.021267764 0.2128934 -0.09038448 0.17758484 -0.011500138 0.018598054 0.027565006 -0.04365579 -0.20138091 -0.020311866 0.41226673 -0.08621656 0.014295156 0.06248845 -0.03086215
长春 0.13122027 0.08462861 -0.069381796 0.09488068 -0.027526531 0.10479434 0.3426935 0.07816347 -0.40253213 -0.03801197 0.16380943 0.020661136 0.119162366 0.1461436 0.07945576 0.09707763 -0.008997515 0.22772792 -0.026559642 -0.04068216 -0.1231997 -0.16105922 -0.103852 0.0038815683 0.07971612 -0.036182057 -0.04644512 -0.254646 0.0760673 -0.16268618 0.11821351 -0.044752143 -0.012129204 -0.09049151 -0.11755246 0.014458601 0.030748758 0.13206542 0.23780914 0.11753463 -0.24530128 0.06623779 -0.12496508 0.02358442 -0.027563278 -0.05937595 -0.37262332 0.014205759 -0.12611616 -0.065392375
悖 0.046706114 0.07337488 0.20531572 -0.038521193 0.004739541 -0.0016737246 0.036271147 -0.35681888 -0.0015764233 -0.136396 0.1247736 -0.0962589 0.09583859 -0.08813054 0.07230578 0.11255598 0.2539858 -0.029756442 0.020319158 -0.20897563 0.40342847 0.0010222152 0.1002326 -0.10481402 0.09358184 0.02050189 -0.20110014 0.2053603 -0.1340159 -0.16842133 0.03484553 -0.07791651 -0.1299935 0.046828747 0.4038527 -0.06004063 0.02444826 0.05460945 0.03915386 0.17848134 0.032361493 -0.1681723 -0.18283409 0.05773312 0.005482 -0.024567613 -0.06248267 0.047617353 -0.03627524 -0.07876269
渑池县 0.24735625 0.051745992 -0.26552188 -0.040700357 0.06776279 0.08487125 -0.26413292 0.07901519 -0.039593022 0.1555675 0.14749394 -0.05431785 0.0053253123 0.1957953 -0.02199574 0.11356002 0.11313862 0.16706173 0.080214866 0.045860346 -0.0763656 -0.10883666 0.14336184 -0.15631355 -0.020667078 -7.6470064E-4 -0.100743204 -0.09330386 0.16311896 -0.36444026 0.15407036 0.2584972 -0.021342697 0.07268541 -0.011095382 -0.048652228 -0.05794087 0.27840936 0.085539944 0.12852874 0.013270784 0.019997923 -0.19546309 0.037048154 -0.201822 -0.02122205 0.21409124 0.11827252 -0.14150177 0.13661051
传记 0.28366348 -0.037271105 0.1724298 -0.025050258 -0.12181504 0.22424144 0.06958699 0.04618183 -0.25739944 0.16484368 -0.20250584 -0.31894162 -0.052675035 0.013130526 0.013090139 0.11121411 0.07405465 0.22985826 -0.06806544 0.10963118 0.055556342 0.25015646 -0.0309961 -0.12278631 -0.11124422 0.29726997 -0.0018999933 0.1390633 -0.106491774 0.10858567 -0.08932534 0.013550188 0.012308938 0.10749693 0.07638934 0.105444394 0.08678424 -0.035886142 0.034597903 0.07117949 -0.2507147 0.112027146 -0.06552108 -0.13331597 -0.08975765 0.2506198 -0.05447357 -0.13052812 -0.048610125 -0.1467466
红腹锦鸡 0.13641347 0.19755363 -0.10554222 0.062827095 -0.20224126 0.048336282 -0.14150469 0.025843445 0.056652762 0.06885575 -0.052931663 -0.1332185 0.15775716 -0.08441244 -0.22424911 -0.32468542 -0.062811986 0.21638146 -0.012825178 -0.18093313 -0.13561562 0.014513021 -0.22706273 -0.004486512 -0.15636964 -0.020477092 0.11573607 -0.045772646 0.09171711 -0.25935233 -0.0908225 0.01777155 -0.018799514 -0.11532432 -0.063342646 0.18409345 -0.23324454 -0.0968771 0.12276323 0.090942204 0.16633539 0.18850595 -0.15084995 -0.16018507 0.19036807 -0.06102047 -0.017202342 0.020770704 0.22445287 0.16524826
数码 -0.07656074 0.061296277 -0.07530441 -0.2744963 -0.118346415 -0.057219908 0.124925025 -0.053565767 -0.03688466 -0.091800615 0.030115772 -0.054621924 -0.11486048 -0.10277365 -0.11285254 -0.100600384 -0.026053859 -0.04572438 0.13631868 -0.2988138 -0.09314721 -0.037189733 -0.07618239 -0.18614408 -0.12621881 0.01801816 0.06203068 0.057119552 0.16890058 0.3074743 -4.0827345E-4 0.022681775 0.05283519 0.2071484 -0.081523985 -0.06123486 0.12266447 0.15454288 0.11761499 -0.13735127 0.030621907 0.42963776 -0.35363424 -0.14939909 0.038922325 -0.04386211 -0.1636501 0.0578075 0.06664765 -0.08111278
陆游 0.36313215 0.020120185 -0.036023423 0.006831112 -0.06356918 0.22902283 0.05172264 -0.09487241 -0.011293161 0.13642706 -0.1305426 -0.30361244 0.03983061 -0.2432588 0.036678556 0.15545306 0.23187593 0.13270432 -0.029661845 0.05863192 0.092027545 -0.03473026 -0.17724912 0.03742067 0.05301209 0.21951817 0.09112274 -0.007158548 0.051530313 -0.13631514 -0.02946902 -0.26465642 -0.04760881 -0.09186853 0.1809939 -0.09114858 -0.022956861 -0.07504817 -0.19198138 0.17251486 0.06888304 -0.14295451 -0.22139817 0.0038637235 0.033740208 0.16493762 0.18016154 -0.1760849 -0.14640884 0.04783537
空气污染 -0.08773961 0.02246938 -0.058108643 -0.12041243 0.26761705 0.04446387 0.08445574 -0.13708761 -0.16202913 0.16576132 0.20615488 -0.094314836 -0.13700157 -0.29100344 -0.033631634 0.19286832 -0.12715456 -0.030609777 -0.21531966 -0.15616524 -0.10929886 0.06747834 -0.32119885 0.011269987 -0.0028842113 0.12753552 0.21220997 0.021918502 -0.036485076 -0.11599656 -0.08658117 0.21446386 -0.23309231 -0.0020481683 0.08327275 0.043016396 -0.10394221 -0.062202793 0.1349723 0.116528645 -0.06511007 -0.13058104 0.070638806 0.22555748 -0.09402441 -0.23293029 0.014985176 -0.06727816 0.044404954 -0.18223605
上海 0.1555253 0.113413535 -0.0155283455 0.058654774 0.023083717 0.034495093 0.20493315 0.22309276 -0.30264708 0.093152724 0.03874173 0.12078148 -0.055416998 0.25410068 -0.05167379 0.27752125 -0.06474405 0.16146763 0.12250533 -0.15953238 0.02792976 -0.09975597 -0.08853967 -0.11420436 0.10504727 0.1557432 0.032151908 -0.22375068 0.27026984 -0.031505104 -0.0871436 -0.0045411014 -0.01318177 0.009365298 -0.009519989 -0.06584202 0.17368366 0.1867893 0.26031178 0.08625576 -0.09846906 0.04365164 -0.049498927 -0.07816474 0.051384516 0.135931 -0.33392617 -0.16864212 -0.07393384 -0.0085950345
植物油 -0.13127168 -0.06270254 -0.080274604 0.059985578 0.05698548 -0.10290011 0.32641217 0.08065998 -0.10620047 0.057301793 0.13854715 -0.010197504 0.108976424 0.10170276 -0.09255313 0.08783602 -0.25600854 0.18599065 0.3067353 0.018976819 0.09963961 -0.0378306 -0.11394611 0.4285617 0.012122743 0.091272034 0.097208634 0.29141662 -2.4641864E-4 -0.118358664 -0.040904336 0.035926092 -0.019451903 0.001079649 0.15085198 0.13019146 0.010487899 -0.26062238 -0.10799094 -0.09465238 -0.052868143 0.023494333 -0.14387174 -0.14855945 -0.0011258948 -0.19623227 0.016206428 0.116207816 0.043599345 0.13454078
金钱龟 -0.086116664 0.16289718 -0.077969715 0.061844885 -0.04789034 -0.047657117 -0.16862784 0.045982353 0.09711975 0.0712689 -0.0026660797 -0.24170388 0.20183958 -0.019040247 -0.29442617 -0.2302905 -0.09068058 0.2879047 0.1676726 -0.045612346 -0.06825556 -0.112548016 -0.12466367 -0.0033448385 -0.100342095 -0.04293065 0.12933695 -0.067963466 0.16521318 -0.41366157 -0.07421891 0.037647434 -0.11715702 -0.060909476 -0.0516798 0.09114883 -0.01228661 -0.11635197 0.09552474 0.037317388 0.011569855 0.14570226 -0.14001225 -0.16969371 0.11883778 0.009777013 -0.083337955 0.115172446 0.29384866 0.1770015
创作 0.22197282 0.014786517 0.069849856 -0.1806622 -0.011613609 0.43528515 -0.01104996 0.18578373 -0.10947087 0.153132 -0.10494146 -0.08864588 -0.15192905 0.0012854327 0.08705266 0.20743251 0.12823977 0.16394612 -0.055697158 -0.09930788 0.064277835 0.08685482 0.11542843 0.111204915 0.07718507 0.19784436 0.12066486 0.1584936 -0.016174229 0.20055185 -0.025660696 0.088762574 0.22128217 -0.09963416 -0.033944517 -0.0957295 0.17302172 0.07534263 0.16889693 -0.05861641 -0.0312718 0.12170258 0.025829902 -0.1648068 -0.10442209 0.29953295 -0.16819395 -0.12664548 0.011240396 0.088413015
上党梆子 0.19257435 0.3164561 -0.0666405 -0.10748371 -0.15700105 0.2732367 -0.12621666 0.10435313 0.016536638 0.14614071 0.1033819 -0.12053589 -0.119894624 0.13531074 0.25507855 0.07152421 0.041135896 -0.008713709 0.20024368 -0.0076258224 0.05896452 -0.27092442 0.16233471 0.1278679 0.039615218 0.13227531 -0.00870869 -0.07849878 0.08203247 0.010520096 -0.020673612 -0.023633897 0.14961766 -0.031428427 0.016902762 -0.14073919 -0.065867975 -0.1327623 0.18307148 -0.049744535 0.1189908 0.20492151 -0.037809588 0.013557065 -0.22887792 0.17289291 -0.18816982 0.12129033 0.035930417 0.28884453
主板 -0.1400668 0.17608303 -0.09434639 -0.1445751 -0.045068398 -0.09322163 0.14711587 -0.020745948 0.22663872 -0.123370096 -0.036244716 -0.033644892 -0.09128882 0.11415808 0.10554191 0.09304703 0.09772332 -0.056961954 0.11440902 -0.15335785 -0.3038164 -0.20898183 -0.06633868 0.037237637 -0.27972037 -0.03192854 -0.2896262 0.10120441 0.30874595 0.27039048 -0.020467322 -0.15423319 0.019045519 -0.14837421 0.22373216 -0.012075772 0.087786905 -0.18108094 0.08558852 -0.01750054 -0.05538145 0.033046927 -0.07604635 0.18515374 0.08157302 -0.12475013 -0.019581048 -0.05809013 0.099904425 0.13600887
古巨基 -0.13180178 0.14163223 -0.044749532 -0.106414005 0.09233217 -0.0870422 0.070098005 0.11041415 0.0035057678 -0.04206542 0.10571986 -0.03560498 -0.33868724 -0.096215315 0.04917457 0.11265953 0.067248434 0.083152056 0.031088334 -0.14248227 -0.08263154 -0.05610479 0.35879898 -0.020771261 -0.027399652 0.10202099 0.025025396 0.04481965 -0.20426905 0.06283042 -0.105118744 -0.22119321 0.2262839 -0.12336048 0.07545147 0.06738373 -0.20293443 -0.18518968 0.2660355 0.021971136 0.019331755 -0.012949185 -0.12647456 -0.108196706 0.05485515 0.28280142 -0.26394087 -0.036513537 -0.04864888 0.25190338
释慧远 0.35200885 -0.14105241 -0.18808189 0.10041143 -0.10947754 0.036624376 0.009080078 -0.15591434 0.07217964 -0.06732387 0.029526513 -0.079359986 0.029006222 -0.19237748 0.0053424095 -0.1650922 0.18378907 0.047760118 0.02048841 -0.048930068 0.30202544 -0.06937901 0.19191122 -0.06207603 0.22427332 0.37093556 -0.1566816 -0.07059906 0.026992844 -0.14482129 0.006298879 -0.0050486196 -0.07186409 -0.03922938 0.24957101 0.09801035 0.0021675995 6.702429E-4 -0.08127202 0.16551885 -0.037417177 0.09388071 -0.24924327 0.16804874 0.053405814 0.1161326 0.087033905 -0.08374752 -0.17902157 -0.0059806323
辩证法 0.043560274 -0.13414234 0.23849687 -0.098843664 -0.115897566 0.133262 0.06884222 0.031890627 -0.38477528 0.10118751 0.050248228 -0.10892078 -0.051155068 -0.13053958 -0.035898983 0.055279013 0.24015307 0.06751042 -0.101186484 0.036138393 0.15890908 0.06312847 -0.24494487 0.1972193 -0.12753677 -0.025337556 -0.22314782 0.26520517 -0.039884932 -0.017266162 0.29686713 0.08994545 0.044569444 0.019474069 0.16152127 0.010957441 0.16854303 0.11372018 -0.054483198 0.09562096 -0.116046034 -0.024392633 -0.017646767 0.12965138 -0.26367378 0.1263954 -0.19904646 0.026181966 -0.011140479 0.060329027
婚俗 0.0070335288 0.24636994 -0.065324835 -0.22778477 0.046082772 0.283462 0.05877244 0.211034 -0.21093105 0.20050181 0.07662422 -0.2075867 -0.020009644 -0.109664366 0.055460885 -0.1370873 -0.016555622 0.010868104 0.037599616 -0.14933982 0.34645104 -0.04046611 0.12114005 0.07406376 -0.18900481 0.22792989 -0.088589564 -0.056948368 0.11405426 -0.09075629 0.049989738 0.12309323 0.119490206 -0.059141956 0.013684219 -0.21937408 -0.1353688 -0.06757676 -0.12789753 0.24685396 -0.040967543 0.106551856 0.13328764 0.006357548 -0.08262161 -0.052348055 -0.07824505 0.096980155 -0.04292922 0.23882674
现代诗 0.20405246 0.006127178 0.23694909 -0.10715872 -0.13081495 0.22830518 0.16067459 0.10964188 -0.27050084 0.1925741 -0.064093366 -0.2457985 -0.09971283 -0.037152626 0.08237036 0.09710574 0.18332472 0.16469091 -0.14637198 0.060105305 0.117740415 0.123828635 -0.2941731 0.062278714 0.016987534 0.14750852 -0.020830292 0.09796179 -0.070364766 0.08418677 -0.02068241 -0.045162577 0.13856715 -0.024656545 0.12607451 -0.03990168 0.15978865 0.0678228 0.10125868 0.035797454 -0.041394286 0.0034498328 -0.09233627 -0.04812203 0.039710924 0.3517999 -0.1783039 -0.2507782 -0.03874481 0.12762345
食色性也 -0.07755383 -0.091230325 0.123158105 -0.06273348 -0.045562424 -0.20333254 -0.15318361 -0.08688027 -0.0916718 -0.14992782 -0.04953191 -0.19427672 0.092604466 -0.2627831 -0.10512455 0.09251122 0.2883937 0.005509871 -0.02851302 -0.08364789 0.3882605 -0.11247866 0.16858426 0.129243 -0.084607184 0.0020767853 -0.10332737 0.11613529 -0.09067255 -0.096304454 -0.06710573 -0.3150145 0.13012631 -0.15594174 0.27539116 0.056235906 -0.081845924 -0.007998891 -0.025676558 0.08400763 0.005835021 0.11078237 -0.11913913 0.1629645 -0.11665538 0.20513785 -0.14587785 -0.054135576 0.052480526 0.035593763
商贸 -0.089530185 0.029701713 0.1553424 0.0677336 0.03893377 0.017394017 0.17613228 0.00484602 -0.042991754 0.20629026 0.10525347 0.08011489 0.035355672 -0.07086589 -0.20417204 0.28222606 -0.020610128 0.055307593 0.14407489 0.08959543 0.08252434 -0.21884897 -0.18649393 -0.035997532 -0.12462821 0.14408958 0.03486572 -0.18925837 0.29607043 0.059557606 -0.023657471 0.107548684 0.014943916 0.11931263 -0.1905791 -0.2906373 -0.18579303 0.06823854 0.13489683 0.31979057 -1.09803186E-4 0.07700775 -0.14183265 -0.034408595 -0.095555216 -0.13484834 -0.12456455 0.1117867 -0.23516646 0.08688891
华罗庚 0.1606206 -0.10389775 0.07699216 0.04795378 0.042360447 0.17830548 -0.1469438 0.1800489 -0.42033228 0.04216727 0.026238423 0.06480196 0.026434343 0.16663857 0.090876766 0.107656516 0.19486488 0.105421714 -0.01322625 0.088979036 0.027819743 0.01341328 -0.03433354 0.003528488 0.039127164 0.14589989 -0.006922875 0.02523136 0.20439807 0.06372969 -0.13237306 -0.06680583 -0.011402654 -0.27534524 0.030435009 0.15444787 0.3587409 -0.16370752 -0.08836847 0.13837281 -0.07749809 -0.012565352 -0.0536697 0.043652594 -0.24302411 0.19614586 -0.013772041 -0.21949269 0.10687199 -0.18390432
报人 0.18617915 -0.055294458 0.24181935 0.014068752 -0.12069084 0.13727134 -0.02358771 0.10326326 -0.25160986 0.11714883 -0.06770398 -0.13064004 -0.059239082 0.10423079 -0.0069838567 0.18750171 0.17688406 0.07668887 0.071257606 -0.10631283 0.20118932 0.12948634 -0.102061614 -0.032516304 0.004065495 0.42505687 -0.07195103 0.06278876 0.18165432 -0.0582703 -0.07910253 -0.13929085 -0.10514035 0.020883042 0.20304577 0.088542186 0.15345992 0.059363794 0.2027682 0.109423354 -0.10302497 -0.059698436 -0.027846927 -0.008521984 -0.06267332 0.3392081 -0.064796366 -0.22726905 0.06677793 -0.039245527
球员 -0.2681223 0.33129022 0.16122551 0.08556017 0.0144373495 0.25165367 -0.27374542 0.18062572 -0.050245944 0.0066652955 0.06543658 0.1220589 -0.10120351 -0.11930196 -0.12835732 0.18562211 -0.14793424 0.014670942 0.05447159 0.034524933 0.0075461296 -0.0361488 0.039773397 -0.11111838 -0.27767667 -0.14359002 -0.0771034 -0.010352112 -0.08651617 -0.027649669 -0.048166387 -0.05657909 -0.1840412 -0.101266466 0.12169242 0.18087557 0.2919883 -0.11880073 -0.06436039 -0.15092018 0.0907504 0.031789653 0.0032807328 -0.217943 0.009828014 0.15518789 0.1350928 -0.05310901 -0.14984456 -0.123648725
零食 -0.3080294 -0.14213082 -0.06647275 -0.08398954 0.15112154 -0.07328483 0.14232723 0.07493815 -0.12661092 0.10420157 0.111812994 -0.20080239 -0.10444434 0.0074832607 -0.16605294 0.14468469 -0.1904854 -0.13910565 0.08503331 -0.04502568 0.14185579 0.11278806 0.013858329 0.19551809 -0.00896966 0.2869093 0.12678659 -0.16774534 0.06148014 -0.11473588 -0.24125819 0.07756262 0.002965806 -0.09951538 0.15378974 -0.038424246 0.12140988 -0.17371579 -0.16080719 0.090456694 0.1804719 0.058287982 -0.13884747 -0.1571536 0.11288804 -0.17460744 -0.19588715 0.11481523 0.21601659 -0.029234724
耶稣 -0.032737896 -0.28843293 0.030047236 0.067811124 0.04709523 -0.020666117 -0.103019305 0.10689038 -0.19423184 -0.10431589 0.096076004 -0.031394124 -0.13355185 -0.054832853 -0.098673515 -0.059892084 0.09868934 0.022903992 -0.22377393 -0.26441237 0.2511056 0.10644419 0.031386096 0.010717103 -0.096225 0.19678837 -0.06818774 0.035851307 -0.12790813 0.04972714 -0.05548159 0.05408043 0.20800596 0.017004233 0.28589457 -0.15031831 0.23542522 -0.008466533 -0.28665093 0.096056126 -0.23682289 0.20729887 0.10989312 -0.06903423 -0.26682797 0.08508208 0.016850948 0.09898811 -0.09351845 0.011079136
肾 -0.11216938 0.12194992 0.017344987 0.037728082 -0.06336825 -0.024782205 0.083303295 -0.09830986 0.042767577 -0.15278783 0.20348524 0.03841694 0.021578511 -0.15418918 0.054888114 -0.07601857 0.20808274 -0.034222692 0.20590337 -0.07991751 0.0139094945 -0.10186445 -0.12360118 -0.00341957 0.23248008 0.030979719 0.17204589 0.0768119 -0.006722527 -0.018362312 0.21052276 0.24716769 0.065671995 0.4396197 0.17395093 0.30445993 0.24814616 -0.20280695 0.07285776 0.1951431 -0.13215567 -0.011709173 -0.006220038 -0.020418936 0.14009593 0.023712505 -0.02373407 0.1305924 0.10088324 -0.020439548
成多禄 0.23574255 -0.078730546 -0.15387613 -0.1095272 -0.15033966 -0.015890863 -0.025636433 0.05967822 0.06683075 0.01628188 -0.06486927 -0.307381 -0.12389108 0.09112007 0.024120826 0.1482387 0.30512723 0.19861877 0.0415415 -0.18811746 0.30198362 -0.07308142 0.17251407 -0.077999026 0.12693298 0.17497168 0.087660834 0.05878939 0.11880741 -0.12826101 -0.043581534 -0.2086529 -0.25819913 -0.086524315 0.049625073 0.0034149077 0.05313629 -3.5937777E-5 -0.13787425 0.13294695 0.14215904 0.03911184 -0.20011242 0.08239954 -0.07462061 0.18603161 0.05448782 -0.074697174 -0.2203408 0.089163885
电视节目 -0.0607482 0.16132927 -0.03897986 -0.22008829 0.076708935 0.1287401 0.18146192 0.08384663 -0.17640492 0.09097642 0.23586994 -0.0674364 -0.27975193 0.08176171 0.10865879 0.14755839 -0.10089796 -0.17715505 0.12692422 -0.10519373 -0.047536206 0.13455582 0.18814054 -0.10729551 -0.23737448 0.16964695 0.13231556 0.09660157 0.060244262 0.20972234 -0.19184378 -0.10920493 -0.015226158 0.05755633 -0.056620836 0.007845954 -0.10587466 0.028808642 0.21323353 0.078917556 0.098511964 0.19835524 -0.1586355 -0.08819238 -0.08345856 0.22079736 -0.24324846 -0.11514573 0.10209513 -0.06611859
多媒体 -0.0687085 -0.008308319 -0.11219571 -0.35135576 -0.15981148 0.11664955 0.34906295 -0.044908956 -0.07567428 0.087439924 0.058625214 0.14897293 0.034715153 0.11521226 0.027604418 0.029345468 0.10680484 -0.1962602 -0.0025176904 -0.15264305 -0.0360466 -0.02858867 -0.20132294 -0.16472924 -0.16075753 0.02483584 0.17844877 -0.056212567 0.04306632 0.3346044 -0.0711633 -0.21762556 -0.071996346 -0.0664661 -0.13961844 -0.08252449 -9.967356E-4 -0.022762049 -0.010890235 0.2378557 0.14821687 0.22262545 -0.17177494 -0.13951977 -0.019369276 -0.105479926 -0.08475667 0.036913134 -0.14543164 -0.124585636
绿孔雀 0.09999474 0.23233357 -0.09431731 0.04025534 -0.17248365 0.037656613 -0.18562657 0.057153217 0.030362751 0.069905944 0.010600688 -0.19650517 0.19015051 -0.05229644 -0.23432197 -0.32077345 -0.03628073 0.21447505 -0.052891918 -0.2786625 -0.05466688 0.029567102 -0.19305895 -0.019941453 -0.16161072 -0.01706507 0.14353432 -0.05125049 0.04476489 -0.25781143 -0.07931374 -0.011258603 -0.09257994 -0.19219382 -0.049368802 0.07478985 -0.17391928 -0.112829946 0.15015307 0.15145369 0.10948264 0.22326857 -0.10717835 -0.1919272 0.13972957 -0.11573899 -0.038570724 0.039544 0.1426246 0.11438865
昆明 0.04300228 0.14182696 -0.20691916 0.1587192 0.008460654 0.032954916 0.0942971 0.17803861 -0.29783866 0.034482855 0.2808008 0.106923126 -0.00920662 0.23442216 0.019425103 0.12872232 0.011734779 0.24306054 0.047481555 -0.048142705 0.00891406 -0.074884586 -0.22126642 -0.072904825 0.19534919 0.14525437 -0.10511258 -0.22043663 0.20993091 -0.1925462 0.07482206 0.010639196 0.042018797 -0.0730824 -0.16424838 -0.19304493 0.111013874 0.19458956 0.1047989 0.21143307 -0.03335552 0.13020702 -0.107384846 -0.10481826 0.16787744 0.028279364 -0.09525805 0.025333166 -0.1614294 0.06357036
规则 -0.3564458 0.1593141 0.029974844 -0.14744799 -0.12016487 0.2549408 -0.124317124 0.10342522 -0.06100171 0.07035966 0.0046674823 0.0108145205 0.09566482 -0.03577146 0.13787031 0.051714215 -0.10639492 0.14285755 -0.20164931 -0.07057647 0.025932228 0.033720825 -0.13727406 0.0010695383 -0.38623044 -0.0429397 -0.031508777 0.33334273 -3.6084384E-4 -0.04535018 0.059887756 -0.016807824 -0.15486377 0.21656193 0.045466866 -0.07777452 0.1370217 0.17088577 -0.1634364 0.050699804 0.014269405 0.03181065 0.045036133 0.07407266 -0.06467989 -0.121684454 -0.3041931 -0.029544843 0.08275119 -0.16463111
空调 -0.16686417 -0.07119983 -0.036219757 -0.2441953 0.3219376 0.08443568 0.24735858 -0.03979683 -0.091188006 -0.053993218 0.01018968 -0.046373453 -0.24169244 -0.07934181 0.050033852 0.15230986 -0.005071243 0.0034335034 -0.09991258 -0.039790872 0.038013592 -0.11988723 -0.36372235 -0.19802336 0.05705549 0.048525553 0.13406816 -0.12269566 0.10968446 0.10701327 -0.015813587 -0.09848811 -0.17831734 0.010851098 0.02965285 -0.21364772 0.0035015806 -0.23976833 0.13767847 -0.010210958 0.03702797 0.104242176 0.053049628 -0.14667615 0.05897754 -0.3116065 -0.12787828 0.020694843 -0.05149089 -0.21477604
金领 -0.09304699 0.2840122 0.25659263 0.16695714 0.049336147 0.054236583 0.23863414 -0.076983415 -0.14352487 0.09417522 0.036471266 -0.085164964 -0.19793798 -0.15096076 -0.27367803 0.26850772 -0.07713464 -0.019431654 -0.020443473 -0.07128297 0.016028712 -0.0924486 0.1416147 -0.080920905 -0.28605372 0.14258727 -0.025665829 0.062153995 0.17082272 -0.0537576 -0.21987638 0.014462083 0.055802796 -0.09347011 -0.114288926 -0.13115852 0.15925144 0.046548236 0.16405264 0.1559536 -0.0041304645 0.13231653 0.015934553 -0.07023931 -0.02725474 -0.2074238 -0.088730626 -0.25513136 0.022510773 0.07958115
十字花科 -0.13109173 0.07312986 -0.11200303 -0.1104825 0.113277406 -0.13924792 -0.10851141 -0.0901172 -0.056504477 0.09418367 0.08877553 -0.26379633 0.31569508 -0.10087735 -0.084303856 -0.17756917 0.012600011 0.23536009 0.15939324 -0.016784828 0.056530256 0.15251684 -0.3154747 0.1588659 0.04263136 0.09083931 0.044673655 -0.028699385 -0.06857139 -0.12205927 -0.16763708 0.0043186666 -0.10239702 0.10185312 -0.18645236 0.15406004 0.27344045 -0.08066043 0.094642475 0.11299187 0.12310992 -0.05534896 -0.013271688 -0.19789815 -0.040134005 0.09169365 -0.010375511 0.14943899 0.12522097 0.2854137
聊城 0.15429357 0.15852067 -0.16366698 0.015024405 -0.06900963 0.1311633 0.23147593 0.04033213 -0.31702748 0.060556684 0.034209374 0.07570644 -0.08352682 0.30018649 0.062508576 0.24089238 0.09597398 0.10575056 0.15021215 3.1115784E-4 0.064204216 -0.08984209 -0.030565891 -9.439603E-4 0.13668403 -0.0051495866 -0.20028976 -0.23009323 0.2218371 -0.3115706 0.03525074 0.038085036 0.09074205 -0.061933413 -0.07630138 -0.032409426 0.04494805 0.24743827 0.21254556 0.12528454 0.12714083 0.15192288 -0.1110095 -0.010103994 -0.18228996 -0.010307462 -0.08113483 0.034950845 -0.15502909 0.0060828966
笃学 0.014113187 -0.11047114 0.3583949 0.024510916 -0.07100896 0.10888948 0.21000907 -0.017322242 -0.14349619 -0.16424258 -0.046991166 0.19946335 -0.022115305 -0.15057158 -0.11586971 -0.031259976 0.38587996 0.12488713 -0.05062801 -0.045475733 0.1732437 -0.10013645 0.06066111 -0.081538394 0.03843021 0.2866681 -0.059071403 0.22084323 0.1281686 -0.135711 0.05230872 -0.17582546 -0.08517931 -0.112066634 -0.15251443 -0.03397891 0.22683871 -0.06701515 0.051625054 0.16035634 0.23190382 -0.07532883 -0.07959688 -0.00921153 -0.06937609 -0.052724946 0.16329035 0.12517756 0.023035027 -0.036365427
甲午战争 0.1713885 0.09414146 -0.1724172 0.16484886 -0.14405954 0.14884463 0.002346323 0.20828846 -0.09914755 -0.12011525 -0.13920501 0.14087576 0.04004148 -0.032228217 -0.018593019 0.13895953 -0.16531827 0.042855717 -0.08523186 -0.09697753 0.034327716 0.0014061915 -0.23615532 -0.06802744 0.14879827 0.4125301 -0.083347104 0.09052705 0.17851412 -0.08515634 0.07125386 0.021473657 -0.20782386 -0.09522844 0.11147818 0.092856914 -0.05876852 0.17303032 -0.16284607 -0.02025753 -0.09098927 -0.09867486 0.020281728 0.005611197 0.027528265 0.30762655 -0.025637185 -0.19220114 -0.07523973 0.28724188
水晶 -0.14668182 -0.1769232 -0.025867071 -0.13746291 -0.14267042 -0.010338167 -0.103377216 0.060778275 -0.030461913 -0.051861178 0.07290844 -0.13756962 0.06997761 -0.23442295 -0.30723718 0.060232047 -0.08068188 0.13354546 -0.011391429 -0.23652968 -0.1621653 -0.03474849 0.18613859 -0.017423565 -0.02400028 0.06438595 0.05237607 0.06908367 0.14464884 -0.1411892 -0.21035455 0.29031375 0.10176094 -0.14501388 -0.031608693 -0.088491455 -0.007344511 -0.03276805 -0.11897158 -0.26732397 -0.22762387 0.33357108 -0.06492638 -0.21186084 0.07349168 -0.15322825 -0.02930638 -0.10859627 -0.028668595 0.032337025
戴复古 0.22803351 0.03927637 -0.1115922 -0.07305582 -0.031325143 0.2350506 -0.010420416 -0.14077 -0.009826291 0.07058223 -0.079250306 -0.29706654 -0.06666603 -0.19245692 -0.01635011 0.1251554 0.19002993 0.1314779 0.0531138 -0.08633344 0.25430888 -0.052938446 -0.01843779 0.057589516 0.17949688 0.2519361 -0.022752438 0.005045573 0.10038171 -0.12560159 -0.016774653 -0.17659155 0.110240154 -0.19210792 0.18784408 -0.0014641294 0.052242205 -0.051350854 -0.12545219 0.124377966 0.055721037 -0.01751177 -0.26045108 0.08814481 0.072337784 0.30665022 0.18471804 -0.23174684 -0.09853501 0.10195263
黎族 0.0570129 0.19793117 -0.050885443 -0.13752145 -0.038994677 0.2399511 -0.08018832 0.06699335 -0.20959601 0.15671705 0.12638809 -0.19851397 -0.030867299 0.07614545 0.0708608 -0.14149922 0.017057212 -0.010543914 0.0071565034 -0.28925088 0.1560453 0.07433762 0.10473794 0.21680868 -0.107729256 -0.04387429 -0.10564053 -0.09817447 0.21667172 -0.24366844 0.025399944 0.22604193 0.0787648 -0.13526314 -0.13377634 -0.09087021 -0.15405832 -0.09374473 -0.07334396 0.08911841 0.048416566 0.24286515 0.06549735 0.011280613 -0.028216053 -0.122215755 0.048479076 0.19634116 -0.24943557 0.25482357
迷彩服 -0.12019845 -0.01397505 -0.101014555 -0.19397785 0.040190216 0.20201573 -0.1531876 -0.042981323 -0.103551276 -0.02518716 0.016098956 0.0760437 -0.17990492 0.08585657 -0.24598402 0.11002189 -1.0514208E-4 0.020583298 -0.11062791 0.030490257 -0.055904493 0.1795744 -0.006461532 -0.22569129 0.033720247 0.15794659 0.0355198 -0.009779731 0.2160957 0.0482487 -0.17749682 0.13755186 0.10561604 -0.14883336 0.04953028 0.044876233 -0.09509483 -0.087826066 -0.22094521 -0.13927852 0.14605501 0.29936263 0.08035275 -0.33597687 0.21109664 -0.20991094 -0.05568026 0.084571965 0.1551445 0.19293325
周丽淇 -0.07955928 0.19579199 -0.2054373 0.027123747 -0.039686345 -0.1799429 -0.05229252 0.06381005 -0.0012450224 0.04684556 -0.001306262 -0.03374742 -0.2832949 -0.15008844 0.07204088 0.06763829 0.016245948 0.14039773 0.13936798 -0.13353401 -0.025352396 0.012759471 0.2555686 -0.0689201 -0.047600385 0.21543035 0.099626504 0.085112765 -0.1609185 -0.018809423 0.042085007 -0.36744055 0.20606606 -0.08097921 0.06783866 0.16808146 -0.28142318 -0.24066113 0.28985524 0.032417126 -0.04281031 0.077544965 -0.074810155 -0.08898934 -0.02643328 0.123359166 -0.19859955 0.12907793 0.02119317 0.029733604
空气 -0.14837173 -0.08007975 -0.054085366 -0.16647874 0.2344302 0.07899973 0.13344131 -0.21070331 -0.13628368 -0.052743148 0.15994221 -0.0017554823 -0.21232441 -0.22139716 0.008169627 0.06094541 -0.021876091 0.13779835 -0.24051408 -0.14092267 -0.15994442 -0.07451084 -0.2899762 0.1044453 0.19096391 0.036950544 0.15683618 0.15064366 0.023215877 -0.107382916 -0.05646763 0.13474837 -0.11531257 -0.014864503 0.180755 -0.23461063 -0.08882292 -0.26051036 0.109756224 -0.2596357 0.017396828 -4.0064272E-4 0.14339034 -0.07196129 -0.051856942 -0.1511414 0.021327386 -0.01552335 0.040172134 -0.14332351
点穴 0.024526265 0.06033923 0.122788504 -0.0943923 -0.15696603 0.12994492 -0.19196475 -0.017197877 0.039163884 -0.13337871 0.18199682 0.018133745 -0.3788489 -0.12020571 -0.108751565 -0.10497057 0.07974206 0.058225326 0.05752952 -0.0964432 0.15061978 -0.28187343 -0.11601559 0.096334256 0.041454483 0.029584497 -0.09244102 0.0037579457 0.007510277 -0.08718768 0.11933834 0.16534859 0.11251755 0.23917402 -0.044441935 0.25128096 0.19174793 -0.05789139 -0.084394 0.074740104 -0.057638146 0.18582885 -0.22647347 -0.006633964 5.5645464E-4 0.024172517 -0.15389916 0.17752394 0.33342052 -0.08899771
沈兼士 0.21235596 -0.15690371 0.020777535 -0.06331976 -0.10966748 0.03506196 -0.10514558 -0.040322144 -0.23615493 0.14940089 -0.19978617 -0.20969665 0.09668374 0.20576775 0.07230069 0.0019047725 0.15426889 0.16135803 -0.030126415 -0.00778166 0.24200635 0.02741737 -0.06969324 0.0016783846 0.07840456 0.23482662 -0.117602795 0.073537745 0.12506104 0.0033657495 -0.046640243 -0.09837435 -0.09017043 -0.06473966 -0.056284867 0.20373222 0.012914636 0.020536648 -0.029893465 0.08113791 -0.042726263 -0.14460506 -0.09074838 0.0442279 0.033931773 0.5193902 -0.11239913 -0.21454714 -0.16911824 -0.042698942
毒物 -0.12994242 0.11001343 -0.085783735 -0.20059507 0.10941494 -0.021856256 0.071536236 -0.09625326 -0.19927838 -0.04379796 0.072308116 -0.021800332 -0.055765957 -0.16013385 -0.107989416 0.017692767 -0.068927646 0.058079883 -0.026106117 -0.30312705 -0.06373616 -0.1498015 -0.29848605 0.19896242 0.22485995 0.0848905 0.21003595 0.17595533 -0.20023483 -0.21392593 -0.16369538 0.22616223 -0.027124953 0.23028865 0.09950325 0.3084827 -0.0025557603 -0.13242868 2.0954722E-4 0.115984514 -0.009499581 0.016841104 0.056928515 0.07098832 -0.03680791 -0.08468444 0.09314974 0.11778878 0.13131998 -0.09589614
陕西历史博物馆 0.48552042 -0.11324869 -0.08936965 -0.11114193 -0.06504937 0.19074838 -0.0045958753 0.37647867 -0.066437 0.16179705 0.098978646 -0.048025243 0.06682088 0.22974278 -0.28817034 -0.015457427 -0.016984398 0.2719625 0.040717628 -0.118413985 -0.0011032805 -0.1368652 0.026893191 -0.22640932 -0.039998516 0.08053597 0.14443038 -0.034186 0.05027207 -0.14467476 0.17151487 0.038967017 -0.07994325 -0.005334646 -0.06925088 -0.12394804 0.07623279 0.097280726 0.032440927 0.006284402 -0.22971798 -0.023792544 -0.10111101 0.020199 0.020719625 0.028166516 -0.038417444 0.0051167747 -0.08355436 0.0610828
天心阁 0.18782473 0.0055888956 -0.12884657 -0.08964687 -0.08102353 0.046239614 -0.03566313 0.110941686 -0.08810868 0.15551126 0.15624046 -0.0012504798 -0.028251395 0.118643194 -0.23060799 0.22067581 0.030488115 0.2881609 -0.07441484 -0.09031876 -0.10051363 -0.11823947 -0.09135733 -0.1397378 0.11775862 0.16113152 0.11537521 -0.12707828 0.27912068 -0.08642396 0.31697983 -0.018127764 -0.07487374 -0.08745328 0.072066806 -0.16560738 -0.11576701 0.16390617 -0.28525728 0.22391011 -0.050708376 0.06430269 -0.13382386 0.05932449 -0.1858189 0.10857531 0.19363002 0.027479611 -0.078150496 0.05578697
彭于晏 -0.06255503 0.21837682 -0.08404284 0.020685898 -0.0808058 -0.15461905 -0.01588059 0.07462503 0.0014476875 0.021991612 0.011167744 0.034435727 -0.28621614 -0.1578948 0.030549597 0.08413239 0.007562097 0.096726336 0.22829507 -0.11722354 -0.038236644 -0.09849241 0.33799297 -0.070356406 -0.08411507 0.21716666 0.056532435 0.09904493 -0.1608728 -0.03521794 -0.08266277 -0.2589375 0.20479527 -0.12808996 0.09229928 0.12313408 -0.31252575 -0.08001388 0.22179465 -0.08162101 -0.0050126063 0.15042475 -0.095817395 -0.07781637 -0.06891971 0.1870547 -0.29007134 0.067125306 0.06574331 0.039558694
传说 0.10562899 0.064286895 -0.1333267 -0.15830293 -0.043984096 0.12862688 -0.1179835 0.040965114 -0.054561246 -0.0013616909 0.18771634 -0.38940942 0.012700805 -0.26591587 -0.18741953 0.037400194 -0.051266935 0.17360732 -0.10281543 -0.13318254 0.053405806 0.028875774 0.26087472 0.087327704 -0.1718072 0.20546943 -0.118424185 -0.02854539 0.069366805 -0.10866905 0.066157214 0.040140707 0.14840156 -0.05849301 0.08803673 -0.043251093 -0.048731275 0.12070736 -0.18513544 0.17630291 -0.27287045 0.30355254 0.011143991 -0.066012524 -0.13263182 -0.047637433 0.20741619 0.006640684 0.025118526 0.094369926
冰岛 2.2089052E-4 0.112772204 0.008079185 0.17786445 -0.049446046 0.09526176 0.13721359 0.0761841 -0.24173453 0.25067133 0.10895138 0.12923397 0.05138696 0.117200226 0.028284302 0.011691717 -0.10424372 0.033036925 -0.35313487 -0.122409254 -0.08308687 0.22011556 -0.06339459 -0.10254239 -0.19366056 0.016337978 -0.15069447 -0.10612776 -0.14138885 -0.0897266 -0.11724648 0.13636552 -0.25677678 -0.089135356 0.18459429 -0.045353293 -0.07146001 -0.030894078 0.099468954 0.042610355 -0.22164364 -0.009910228 -0.018793168 -0.13134965 0.19079986 0.32162833 0.023572108 0.15909897 0.049978834 0.18916665
意思 -0.30979618 -0.07442967 0.06482793 -0.12816 -0.083763644 0.021776266 -0.12785664 -0.12493028 -0.07140906 -0.014186132 0.07577178 -0.20832284 0.12738357 0.08427686 -0.007859777 0.069600776 0.12336399 0.062839784 -0.22523224 -0.0351978 0.18486558 0.16062136 0.14334096 -0.012943711 -0.14216077 -0.018063305 -0.27351817 0.05066469 -0.037512116 -0.10682615 -0.06495802 -0.0053289393 0.18214883 0.012702523 0.32711726 -0.27550054 0.23274986 -0.06747312 -0.26507157 0.2654522 0.018065348 0.10603856 -0.08826026 0.0867785 -0.060449075 0.021813026 -0.07394352 0.088187896 0.16082822 0.055689547
重庆市 0.1790545 0.061955437 0.1529066 0.11837144 -0.028984945 0.103354804 -0.030034611 -0.0050558182 -0.20326579 0.0066523096 0.10581689 -0.02458123 0.009607328 0.2500919 0.04504001 0.16036202 0.08346684 0.2483908 0.014983996 0.0071899905 -0.38636696 -0.014730539 0.06769804 0.09056479 -0.001128984 -0.055529468 0.022802413 -0.19764733 0.16598167 -0.17397615 0.027016379 0.11659679 0.026178122 0.022926312 -0.07052388 -0.06882968 0.14728406 -0.04793726 0.16835272 0.25391653 0.08999485 0.17912987 -0.05608754 0.12942465 -0.23084153 -0.21806708 -0.15494558 0.12340094 -0.30932808 -0.033264562
启蒙运动 0.025171561 -0.042439587 0.23018552 0.025832215 -0.059513 0.13544168 0.048585538 0.064238556 -0.32715786 0.17952597 -0.09451246 -0.08780767 -0.08015242 -0.0913361 -0.020955242 0.16557765 0.11115989 -0.14560758 -0.20384727 -0.044770613 0.1863703 0.103704125 -0.20840722 0.15524624 -0.12899435 0.23410636 -0.2200682 0.112415336 0.0474861 0.08598942 0.13082658 0.11399296 -0.06503022 0.10498737 0.17155397 -0.04163241 0.14932784 0.12307251 -0.013077217 -0.031050036 -0.27479562 0.040025186 0.05086782 -0.023050567 -0.21703072 0.27091825 0.053347975 -0.01813035 -0.09262924 0.23899381
摩擦学 0.10979378 -0.06776731 0.0029493752 -0.20311517 0.006654176 0.08064081 0.10715966 -0.113566086 -0.39368284 -0.13551961 0.0014086856 0.060964048 0.030178681 0.044015486 0.022200735 -0.121644646 -0.117798045 0.062058877 -0.1251443 0.013881986 -0.18426532 -0.33248934 -0.22712143 -0.033719216 0.06652686 -0.18902917 -0.14907525 0.110908605 0.0018458766 0.019472338 -0.11980441 0.018728603 -0.123465315 -0.1887024 -0.024106314 0.1501202 -0.01252872 -0.19308746 0.17990011 -0.0055459114 -0.2803553 -0.07708902 -0.0925142 0.057049952 -0.19677566 -0.24733259 -0.19059487 0.026422575 -0.06426928 -0.11903589
安之若素 -0.0076197847 -0.085520335 0.13419335 0.058617964 0.15791489 0.07285133 -0.20931537 -0.346002 -0.08237226 -0.17379448 0.011269619 0.15751247 0.04300096 -0.10384775 0.007010005 0.15889882 0.23114294 -0.08649048 0.07032723 -0.34404445 0.19654427 -0.051043462 -0.011126542 -0.10646894 0.03267459 0.18502873 -0.103333406 -0.11660869 -0.10646179 -0.2102082 -0.052511323 -0.115039475 0.14709668 -0.29482868 0.3494568 -0.07653263 -0.07169943 -0.048661724 -0.03875546 0.07669866 0.16715968 -0.041288164 -0.07622484 0.0928581 0.0024156799 -0.08555367 0.07771592 -0.02189791 0.0042434465 -0.013046594
春节 0.08342758 0.10285854 -0.21825866 -0.08216757 0.07581945 0.27073467 0.1090316 0.26344922 -0.03555545 0.06658364 0.40104198 -0.047198404 -0.1662574 -0.028029947 0.15990995 -0.0625756 -0.10118535 0.0726036 0.13056755 -0.13538815 0.10684671 0.1858891 0.15530807 0.025328692 -0.08625371 0.25212085 0.058309138 -0.2273558 0.15416345 0.02008002 -0.103196494 0.003594384 0.004152374 -0.10785016 0.15317868 -0.021468423 -0.08109069 -0.031009868 0.02406562 0.1050343 0.23741059 0.1307303 0.17339432 0.08932086 -0.09905513 0.058503542 -0.22714643 -0.013632391 0.03040225 0.16232678
功德 0.13380423 -0.1736691 0.08044643 -0.018250903 -0.016734011 0.060851026 -0.10168435 0.045504406 0.19033454 -0.13192248 0.24269074 0.037005574 -0.046008952 -0.0948882 -0.12962693 -0.15941653 0.10807659 0.09832554 -0.04114605 -0.34206784 0.2973481 -0.1092478 0.14656554 0.05214114 0.07404728 0.27336842 -0.09198753 0.01779364 0.008930058 -0.014834317 0.110397466 -0.08140733 -0.03252279 -0.028425822 0.046662435 -0.11002411 0.2769016 -0.21544586 -0.15216295 0.19829178 -0.24117595 0.054758772 -0.09375184 0.20597263 -0.08591219 0.00944182 -0.028514182 0.05734603 -0.20201457 -0.14939502
三纲五常 -0.111232 -0.01672916 0.27626172 -0.110428885 -0.026055604 0.047562145 0.015329386 -0.01902307 -0.08347456 -0.07203042 -0.020526053 -0.111691624 -0.011537803 -0.13429886 -0.07360174 -0.09374079 0.29205805 -0.034652077 -0.032016907 -0.16156107 0.4003415 -0.068055645 -0.017442167 0.031134706 -0.07129856 0.24417466 -0.26805803 0.2564103 0.109982416 -0.16312219 0.2184406 -0.0828956 -0.033461876 0.1342376 0.21743238 -0.020760741 0.11378685 0.008495309 0.016540404 0.06996655 -0.047320064 -0.105090186 0.046760924 0.21329644 -0.30520853 0.05520974 -0.061188363 0.0033207706 -0.036378387 0.12322761
常见疾病 -0.00825899 0.22485419 0.024838507 -0.11142878 0.19275385 0.13377857 0.008280461 0.081784464 -0.1532546 -0.03029015 -0.06709964 -0.008343823 -0.16181898 -0.14545824 0.012466756 -0.07845181 0.119892225 -0.06484613 0.05682558 -0.05051385 -0.050369695 -0.081029676 -0.11393995 -0.017255288 0.056578435 0.048662536 0.18616855 0.0112788435 0.005516812 0.03989078 0.0661645 0.35240638 0.17068471 0.20724082 -0.10763361 0.43195316 0.1392176 -0.098885976 -0.035985786 0.42678142 -0.105829395 0.027439686 -0.056617603 -0.010852788 0.14383753 -0.022571573 -0.009728332 0.14025354 0.1883944 -0.005690873
吕剧 0.21112368 0.21858944 0.032615293 -0.15571865 -0.048214734 0.36600724 -0.06152618 0.08855331 -0.062190942 0.13826251 0.038301405 -0.07989014 -0.11738173 0.080859296 0.21600202 0.14583623 -0.0071193487 0.115915954 0.19935982 -0.010028705 0.045534596 -0.14036408 0.16310018 0.10552897 0.051636804 0.1628452 0.085669294 -0.11097145 0.21278268 0.028638218 0.056308933 -0.14496206 0.26438797 -0.043060698 -0.06717248 -0.063647725 -0.03752122 -0.067122325 0.117072225 0.014018116 0.12401509 0.22590755 0.04208354 0.026060408 -0.27928847 0.19169603 -0.17019592 0.026939603 0.08490568 0.25045985
蛋彩画 0.06213606 -0.09999682 0.03312231 -0.21994516 -0.0645309 0.14528313 0.022925546 0.13422361 -0.030588988 0.14162491 -0.13253221 0.032779507 -0.029646428 0.090133116 -0.038825717 0.086063646 0.21198732 -0.0049895654 -0.030385427 -0.16233349 0.21702416 -0.10611772 0.026649045 0.06022186 -0.066717975 0.09446863 0.18823645 0.09653188 -0.084234044 0.029610723 -0.13640928 0.2016611 -0.16067348 -0.08694687 0.17688224 -0.11100648 0.33414453 -0.10556227 -0.2308657 -0.38593507 -0.27675176 0.09397434 -0.08982256 -0.11561757 -0.05851021 0.23116049 -0.07328015 0.041109946 0.046290804 0.006918963
傈僳族 -0.06681605 0.1363154 -0.028561616 -0.06419235 -0.07630836 0.13034545 -0.038236063 0.09199003 -0.080698036 0.17175977 0.09508283 -0.14622249 -0.09265284 -0.024523826 0.19725525 -0.22450848 0.05892628 0.0106749 -0.006279141 -0.23759346 0.28026614 0.13303228 0.11388335 0.17292768 -0.13823967 -0.01422988 -0.09220657 -0.026800757 0.15880212 -0.09068585 -0.011737005 0.3095414 0.11449067 -0.21851562 -0.09424604 -0.033017084 -0.2053146 -0.15651445 -0.017922038 0.14417784 0.020760374 0.238395 0.0657267 -0.024282642 -0.0083607575 -0.013514229 0.13193221 0.22105287 -0.2270788 0.2799474
公共行政 -0.031849165 -0.004057112 0.12719794 0.10718118 -0.17134094 0.15747285 0.3543006 -0.041395392 -0.38407812 0.087938994 -0.10802091 0.0428784 -0.021730004 0.04830859 -0.022936199 -0.028470978 0.06311655 0.09285378 -0.22760545 -0.01365149 0.039297644 -0.040140644 -0.2438415 0.2087483 -0.3590828 0.07782289 -0.14191979 -0.042828675 -0.064624436 -0.13523766 0.058033757 -0.070972785 -0.12484734 0.009291057 -0.05443067 0.18598571 -0.04680029 0.16637087 0.07575888 0.11815762 -0.08177542 -0.058478545 -0.08978904 0.042344213 -0.10732353 0.0060463203 -0.33544686 -0.07032745 0.0047944207 -0.08104807
赵文卓 0.08277239 0.23001052 -0.12725426 -0.020428635 -0.13768065 -0.09795595 -0.07444426 0.088039696 0.008793019 0.03459691 6.1433984E-4 0.04579713 -0.25501627 -0.12445454 0.03321505 0.0696016 0.017477116 0.12997927 0.2715711 -0.084529355 -0.026835322 -0.040604666 0.26061136 -0.10216992 -0.03383534 0.30293068 -0.0010518449 0.14881803 -0.11821437 0.0061861924 0.036425523 -0.30107597 0.06210955 -0.18008603 0.085975364 0.14965843 -0.27101997 -0.1526936 0.22194082 -0.012228484 -0.11399968 0.13764052 -0.064918965 -0.069705956 -0.10214731 0.09505917 -0.29393706 0.12897286 0.12085779 0.041255888
山西省 0.25874984 0.07749767 0.06670984 0.06050493 -0.090606116 0.19337144 0.008551058 0.014077777 -0.25216982 -0.027505293 0.032801077 -0.02240911 0.0024120659 0.31967944 0.13583173 0.15558663 0.056505892 0.21879338 0.045520786 0.09463638 -0.21126632 -0.013112466 0.08238524 0.082232684 0.08226238 -0.034553934 -0.025127886 -0.2260265 0.19951436 -0.20531574 0.022129875 0.18410756 0.035518788 0.024307093 -0.030012963 -0.018233394 0.1384799 0.03893191 0.20849201 0.18883455 0.03864559 0.14058504 -0.043077946 0.06495581 -0.36077777 -0.24321833 -0.0725149 0.11471864 -0.15941139 0.04917697
房产证 -0.2565999 -0.074956 -0.1591292 0.08626259 0.014144458 0.14080079 -0.27650252 0.23543592 0.08265377 0.11747064 -0.06643462 -0.12231187 2.7156857E-4 0.17968124 0.050037052 0.19649258 0.02210094 0.16239114 0.07748339 -0.3256312 0.13245055 -0.14596906 -0.1443523 -0.11057002 -0.14358303 0.017768564 0.13927011 0.06722218 -0.091628 0.009471227 -0.20095207 -0.036377884 0.06384186 0.12460784 -0.069465734 0.035252396 0.019329948 0.11511175 -0.27060935 0.07395281 0.06884079 -0.09764285 0.13703036 -0.03951662 0.033178482 -0.27148882 -0.19746095 -0.21592215 -0.05956079 -0.08966504
郑伊健 -0.10251192 0.20738141 -0.029783541 0.03610627 0.05919428 -0.11600871 -0.044497736 0.084756814 -0.032763578 -0.055736262 0.07812367 -0.04503107 -0.26831755 -0.121569246 0.048350085 0.15366925 -0.012399688 0.112193204 0.13296604 -0.16478883 -0.06258725 -0.09218546 0.29436147 -0.097220026 -0.037331488 0.20463476 0.1001621 0.064093545 -0.21846166 -0.0029533738 -0.04434209 -0.39060453 0.1839512 -0.14033349 0.12011553 0.11067938 -0.20636292 -0.090146594 0.1944056 -0.022513807 -0.0869728 0.0955905 -0.094922796 -0.05150391 -0.035225373 0.22754578 -0.28475592 0.092200935 0.058134254 0.15422879
中草药 -0.089847304 -0.050192963 -0.081572935 0.0025213093 -0.008618661 0.069359645 0.07076066 0.15565063 -0.18004763 0.113088034 0.25519365 -0.20295052 0.18273427 -0.04233647 0.037944607 -0.039628826 0.038816586 0.06606717 0.24006906 -0.052887496 0.08822962 0.04638705 -0.17176773 0.007820895 0.2836275 -0.005183004 -0.01812484 0.06565501 0.023737397 -0.08556036 0.021114154 0.084495485 0.060286693 0.31191322 -0.23399736 0.2566259 0.21414712 -0.091436386 0.012864837 0.12964734 0.048649002 0.22187373 -0.22793646 -0.13116372 0.11935056 -0.1428897 0.023389926 0.082004316 0.05346279 0.30701262
任天堂 -0.21885155 0.054493673 -0.0751673 -0.22648993 -0.026505195 -0.075478055 0.13673991 0.049331754 0.18348984 -0.16494335 -0.03277088 -0.10755811 -0.22755313 -0.10460837 -0.10473321 0.20810342 -0.10475847 -0.016705055 0.11031368 -0.20216584 -0.32615724 -0.02637397 0.077431805 -0.017526388 -0.31389943 0.11061965 -0.2782318 0.071223825 0.16534561 0.25272575 -0.090024434 1.870478E-5 -0.08772992 0.064073175 0.07115806 0.011495681 0.1569089 0.09272721 -0.04705162 -0.07195044 -0.02237214 0.14758986 -0.109045394 -0.1391472 0.025414834 0.24071911 -0.14186852 -0.046197556 0.005686291 0.10895477
字典 0.09772045 -0.07055226 -0.037147902 -0.39452764 -0.23940867 -0.072533086 0.007145771 0.05001931 -0.06808338 0.12930839 -0.083120845 -0.05223686 -0.061662767 0.029134085 0.25645894 0.20294404 -0.044190858 -0.013004998 -0.09603367 0.024003856 0.086659275 0.11564031 -0.09955392 0.074979365 -0.2721015 0.02258259 -0.14254987 0.1612838 -0.13449426 -0.11319086 -0.18634777 0.041458808 0.08482491 0.08258144 -0.18642715 -0.08272525 0.1087984 -0.13679282 -0.22765893 0.31763643 0.019241467 0.17363076 -0.103258744 0.09255433 0.14545059 0.22970665 -0.08433705 -0.06746185 0.05594202 -0.08245949
法医 0.2284403 0.12885556 0.05256427 0.08000399 0.07483971 0.08068174 -0.036512427 -0.04409151 -0.37307614 -0.08122445 -0.09305073 -0.028750272 -0.04281697 0.03657277 0.049442563 0.022662817 0.093927555 0.024606828 -0.06346413 -0.20191054 -0.2279719 -0.03354489 0.08085242 -0.049964353 -0.11723406 -0.015173286 0.1513157 0.0910261 -0.1167016 -0.08559177 -0.09510325 0.054491997 0.11684594 0.050142962 -0.1319938 0.48719442 -0.06717567 0.13257039 -0.047036532 0.21374941 -0.17717665 0.123386666 -0.20387249 -0.11867586 -0.15716419 -0.039128788 -0.1479268 0.017098501 0.1452012 -0.19520095
清源山 0.24609953 0.09412843 -0.13413277 0.10674149 -0.008847308 0.007122393 -0.04531892 0.10707226 0.10905897 0.14731103 0.21769856 -0.04698575 -0.053451825 -0.024198 -0.09549147 0.06290024 -0.0059817634 0.29352438 -0.14647506 -0.07037413 -0.1464943 -0.16927062 0.056870528 -0.009467846 0.102525346 0.22324459 0.03475969 -0.20906435 0.115494795 -0.18719271 0.24333847 0.119303435 -0.07523911 -0.19123167 -0.08739186 -0.26042676 0.14508045 -0.20665234 -0.120825626 0.31584433 -0.14280997 -0.07647795 -0.22684707 0.04135831 -0.027319157 -0.011794817 0.0955128 0.016757399 -0.08996642 -0.03322185
石家庄 0.047290783 0.088132836 -0.13689363 0.009502372 -0.0025795808 0.038148157 0.15575819 0.18590373 -0.28926718 0.03287763 0.20475732 0.11056099 -0.12038346 0.29499376 -0.0033228812 0.35118932 0.071547315 0.19470043 0.1536474 0.0145824 -0.05207967 -0.059893988 -0.026714541 -0.049939733 0.110456854 0.065496944 -0.03774199 -0.2194415 0.20545693 -0.18359557 0.13484299 0.05262316 0.08588385 0.0010996971 -0.12067358 -0.12690115 0.023845414 0.21739332 0.26857522 0.16516468 -0.008279283 0.17391124 -0.026950087 -0.056642946 0.012880154 -0.06519104 -0.23014341 0.055564966 -0.16209447 -0.039333444
合同 -0.28243643 0.057919662 -0.018289248 0.2885706 0.07024997 0.26437005 -0.15938184 0.22558373 0.17155796 0.056174506 -0.018212982 0.04749543 0.072142035 0.08241419 0.08841097 0.16572294 -0.08435758 0.2825227 0.0484954 -0.23943168 0.043660425 -0.22085701 -0.19055529 -0.053212103 -0.21158697 -0.1438401 -0.07109735 0.13762689 -0.08465298 0.1390583 -0.17119646 -0.10433567 -0.1267841 0.10507729 0.0093627125 0.10218182 0.09855924 0.23661289 -0.0823768 0.016819978 0.019599276 -0.09825721 0.12063541 -0.048996035 0.0029596905 -0.14680304 -0.16706924 -0.03466343 -0.13230197 -0.039008692
白血病 -0.069281705 0.24674304 -0.15573488 -0.014602133 0.14873582 -0.066836774 9.894973E-5 0.098964535 -0.12021789 -0.119439505 -0.016125737 0.036549207 -0.02168136 -0.11105512 0.022574037 0.088214315 0.113338724 -0.11753416 0.087733045 -0.16515675 -0.14864404 -0.05750185 -0.1362262 0.016912363 0.12575352 0.07391096 0.30935657 0.078951254 -0.0680558 0.035726562 -0.044271432 0.18024628 0.21370043 0.06460761 0.11112809 0.4278568 0.18934329 -0.032566763 0.13615537 0.39542618 -0.16349839 -0.05197307 0.10846055 0.09114606 9.811943E-4 0.13214374 0.116651796 0.0609987 0.106060736 -0.0017261406
薪酬 -0.3227921 0.09425795 0.098877385 0.2664337 0.08424669 0.28212735 -0.022086319 -0.07902505 0.011918468 0.05526012 -0.10804181 0.13848123 -0.16211937 -0.093980975 -0.09598802 0.05959506 -0.042996988 -0.0113066 -0.039788965 0.034499634 8.8232034E-4 -0.18015781 -0.09167719 -0.061168317 -0.38222453 0.0673092 0.10308869 0.25997925 0.10909434 -0.002685622 -0.0056397053 -0.16194122 -0.0045957677 0.024969803 -0.10919952 0.14356758 0.100155406 0.1397346 0.028676676 0.024866395 -0.009699895 -0.009860058 -0.055669945 0.28522867 -0.011119432 -0.19805306 -0.33113155 -0.12326157 -0.013098412 0.035451055
王先谦 0.26258352 -0.079951726 0.08158278 -0.11502036 -0.060212966 0.09995364 0.15150128 -0.14887586 -0.009767547 0.059348512 -0.117756575 -0.25620124 -0.0043046977 -0.06757634 0.0036041506 -0.00490987 0.31809664 0.21538875 0.05031799 0.074147254 0.2951468 -0.010771395 -0.021824775 -0.19172682 -0.0013539874 0.11990513 -0.14532368 0.1008498 0.0947459 -0.26790714 -0.06485374 -0.17584929 -0.21019906 0.08279139 0.12706906 0.06622691 -0.01407472 -0.06791849 -0.08499622 0.17560607 0.05431992 -0.1778841 -0.16326505 0.17541589 0.014797855 0.31677702 0.016604424 -0.052110195 -0.068602815 -0.044125084
苏明娟 -0.05291139 -0.2150663 0.054507863 0.08403139 -0.02799986 0.046296243 -0.19782181 0.20660478 -0.17495577 -0.057590622 0.07011345 0.016792325 -0.26101285 -0.055111617 -0.050450847 0.056116786 0.06247916 -0.0057317787 0.19213298 -0.16061242 -0.0017076976 -0.04817261 0.18571328 -0.31020108 -0.25224423 0.273099 0.17115006 -0.07795703 0.17900082 -0.013121873 -0.23927304 -0.08683915 0.22012447 -0.21150424 -0.09646604 0.028499633 0.03918245 -0.05199026 -0.06821651 0.083226465 -0.05194665 0.17139584 0.021830646 -0.079949826 -0.08517606 0.009113454 0.07659676 -0.29207167 0.09462401 -0.06618015
氯化钠 -0.12788804 0.06793292 -0.1574523 -0.1907211 -0.02445366 -0.18028247 0.30938974 -0.092687316 -0.08551535 0.1401215 0.18203485 0.13599446 0.0047973683 0.055298034 -0.09967076 0.06600916 -0.0034094644 0.32339254 -0.017214177 -0.048156843 -0.029084736 -0.13877033 -0.090899445 0.14524323 0.04227804 0.08262224 0.24535775 0.2529552 -0.1293022 -0.006115247 -0.18303771 0.04094075 0.13616654 -0.04549192 0.21887119 0.24870624 0.028234923 -0.13211854 -0.010978269 -0.14669552 0.074589126 0.05281484 -2.7273712E-4 0.16038758 -0.020342521 -0.12631172 0.31877112 0.049602438 0.045304846 0.12750348
旅游 0.054480493 0.057387248 0.0654659 0.13282219 0.01966329 0.07831726 0.11216732 0.04547506 -0.08728794 0.25440288 0.2864116 0.009395363 -0.073426425 -0.10490429 -0.17219248 0.114165805 -0.124453954 0.20366801 -0.09868104 0.071068935 -0.038293533 -0.11282117 -0.045600962 -0.0150484005 -0.1285578 0.2324803 -0.005500481 -0.11092679 0.16803434 0.16726887 -0.040887702 0.19148122 -0.018306173 -0.0057717185 -0.2885107 -0.30965006 0.017200097 0.09185814 0.12251663 0.3928043 0.104827434 0.0932599 -0.1601462 -0.09205755 -0.0043417243 -0.22135518 -0.06255398 0.075593375 -0.022585617 -0.02983428
ntfs -0.017056288 -0.018186942 -0.12306878 -0.3711418 -0.008649378 -0.23173027 -0.18874036 -0.16777907 0.2593951 0.06391701 -0.09690814 0.094288066 0.02088576 -0.07836104 0.20011644 0.16381742 -0.03937798 -0.050150465 -0.099856906 -0.14084794 -0.21007505 0.12194703 -0.26588863 0.04471045 -0.32978296 -0.009438361 -0.100811444 0.102729805 -0.036373544 0.0037821794 0.1383732 -0.07844395 -0.1140304 0.060939763 -0.053165525 -0.004616578 0.24143383 -0.13528994 -0.19364694 0.10982619 8.9775136E-4 0.23453121 -0.0678797 0.035871804 -0.009625321 0.032345384 0.042119607 -0.08923452 -0.16198102 0.017919086
张籍 0.25374344 0.1737928 -0.10424437 0.022454258 -0.066803396 0.23209284 0.012973325 -0.3350271 -0.059564553 0.21804063 -0.19480512 -0.21981682 -0.11046292 -0.12354955 0.11313255 0.01581005 0.15807748 0.08145958 -0.009585113 0.044391096 0.21616575 -0.039694417 0.0134229595 0.12614001 -5.1454856E-4 0.2570037 -0.025342274 0.17498843 -0.032102615 -0.064460926 -0.10521658 -0.12659016 0.15948406 -0.20524089 0.16062291 -0.12675002 0.03157785 -0.0047365264 -0.16353396 0.10068552 0.19508713 -0.15980339 -0.19876215 -0.0065338793 2.8661216E-4 0.15191087 0.116883755 -0.07729006 -0.15534802 -0.020778693
杨师道 0.15585367 0.10231725 -0.25494617 0.06672066 -0.028442198 0.084048726 0.057347182 -0.2675608 0.03873149 -0.21861358 -0.25988165 -0.17276032 -0.08561969 -0.040930986 0.02471254 -0.14763492 0.12687613 0.032911096 0.16216785 0.028061753 0.2475363 -0.1462396 0.065964825 -0.19348136 0.15233053 0.2772603 -0.048978034 0.1066963 -0.03951822 -0.12789716 -0.13348651 -0.13616295 0.051884025 -0.110254206 0.14408073 0.09519939 0.036610253 -0.025637845 -0.096635185 0.116911754 0.11939263 -0.116161905 -0.22171217 -0.03824868 -0.17561673 -0.0063322415 0.09145857 0.057526994 -0.30825195 0.11172554
生物 -0.1960018 0.07106295 -0.08789024 -0.21234366 0.047650527 0.05447754 0.10813285 -0.18501559 -0.32122582 -0.104072176 0.0876637 0.011151759 0.24876139 -0.12948294 -0.22423269 -0.15567571 -0.10294865 0.11853397 -0.14716189 -0.16839617 -0.12015945 -0.14926463 -0.21538441 0.13973911 0.040298212 -0.10541839 0.1270587 0.098756805 -0.06188838 -0.024486173 -0.1632858 0.14118153 -0.032491688 -0.17515402 -0.11887357 0.13311052 0.066996224 0.117104955 0.21221602 0.18465345 -0.123397015 0.1720197 -0.010812741 -0.050242133 -0.23272078 -0.11346703 -0.028161952 0.045637555 0.086220376 -0.15776594
张含韵 -0.18793274 0.10498019 3.623705E-4 -0.1621643 0.023510726 -0.07709084 0.08136763 0.22286019 0.037110664 -0.06745076 0.17866012 -0.029510861 -0.33665884 -0.075219996 -0.022030141 0.0164604 -0.06978342 0.12834072 0.11793033 -0.20495526 -0.1005696 0.050110865 0.39791098 -0.04362141 -0.0760026 0.123510584 -0.040809564 0.03121278 -0.051477533 -0.023034584 -0.18368323 -0.21646994 0.20966814 -0.17230634 -0.008757393 -0.047777656 -0.0363998 -0.09222947 0.18905272 0.07583748 0.14450762 0.07008802 -0.09218019 -0.059013177 -0.010734695 0.27058142 -0.30084276 -0.04452422 -0.09872182 0.08871627
